tree
version=v4
num_class=1
num_tree_per_iteration=1
label_index=0
max_feature_idx=23
objective=regression
feature_names=ACC AIR ALT AUT AX AY AZ BRK CH CUR ECO GX GY GZ LAT LON ODO SPD VOL acc_mag acc_mag_roll gyro_mag road_grad spd_roll
feature_infos=[0:94] [0:2] [0:1343.5] [46:292] [-950:2426] [-159:1837] [-1539:6497] [0:36] [21:99.5] [-52:301] [0:192] [-351:542] [-392:524] [-645:699] [-21.976953510000001:21.963960650000001] [-46.75:180] [25656:26352.400000000001] [2:134] [0:381] [777.632303855749:6664.0208583106942] [1422.8764869380557:3362.4860459941565] [1.4142135623730951:761.92584941055782] [-inf:inf] [0.40000000000000002:133.40000000000001]
tree_sizes=2784 2811 2816 2821 2812 2805 2807 2808 2818 2814 2801 2808 2812 2821 2821 2815 2815 2825 2823 2811 2825 2819 2822 2835 2820 2823 2828 2818 2833 2823 2828 2830 2840 2826 2838 2826 2820 2832 2832 2835 2814 2835 2831 2835 2837 2821 2813 2799 2779 2785 2768 2795 2793 2759 2790 2743 2746 2741 2787 2759 2711 2721 2722 2732 2731 2707 2732 2684 2714 2723 2714 2691 2727 2693 2732 2692 2672 2683 2718 2719 2653 2722 2700 2710 2680 2702 2707 2730 2683 2693 2706 2686 2699 2708 2712 2676 2710 2687 2682 2702 2668 2707 2713 2705 2692 2714 2708 2704 2711 2709 2662 2664 2708 2740 2740 2695 2712 2695 2696 2693 2702 2686 2717 2697 2684 2651 2674 2707 2653 2676 2693 2691 2711 2709 2684 2704 2657 2728 2710 2671 2715 2695 2658 2733 2698 2719 2693 2702 2693 2675 2691 2696 2680 2692 2733 2700 2700 2690 2650 2703 2703 2703 2689 2742 2698 2654 2687 2668 2670 2693 2669 2698 2693 2695 2723 2718 2689 2700 2726 2675 2659 2765 2663 2711 2709 2696 2714 2717 2705 2749 2695 2692 2700 2700 2726 2707 2690 2705 2713 2711 2708 2751 2724 2667 2717 2692 2699 2688 2665 2701 2670 2688 2730 2702 2692 2700 2706 2690 2727 2705 2706 2713 2665 2724 2718 2703 2711 2698 2701 2695 2710 2720 2715 2693 2777 2687 2722 2668 2696 2713 2730 2676 2700 2720 2696 2674 2678 2720 2698 2756 2751 2725 2691 2742 2683 2719 2675 2686 2725 2702 2720 2706 2738 2686 2721 2701 2708 2670 2715 2715 2731 2726 2674 2690 2712 2693 2695 2714 2718 2681 2698 2756 2688 2674 2666 2670 2695 2716 2710 2699 2690 2701 2694 2740 2691 2688 2722 2690 2727 2694 2729 2677 2703 2722 2684 2759 2701 2724 2708 2718 2720 2685 2705 2714 2668 2738 2688 2704 2692 2717 2727 2740 2724 2720 2716 2692 2727 2708 2737 2710 2704 2700 2692 2729 2696 2680 2717 2690 2711 2692 2709 2726 2720 2686 2679 2720 2660 2684 2670 2704 2684 2690 2695 2688 2738 2738 2682 2742 2689 2721 2681 2704 2748 2669 2659 2694 2698 2707 2701 2690 2675 2714 2724 2698 2699 2666 2682 2685 2686 2688 2695 2679 2718 2735 2691 2707 2716 2738 2732 2707 2694 2732 2717 2730 2695 2694 2707 2694 2716 2734 2693 2725 2695 2701 2709 2698 2753 2701 2768 2709 2718 2703 2717 2744 2710 2727 2684 2702 2689 2719 2758 2714 2727 2711 2696 2717 2701 2708 2701 2714 2729 2699 2708 2702 2699 2703 2677 2690 2701 2718 2713 2735 2784 2708 2699 2713 2737 2713 2710 2726 2727 2687 2715 2680 2717 2695 2709 2717 2719 2704 2711 2704 2706 2708 2691 2762 2686 2699 2690 2703 2746 2716 2684 2717 2730 2658 2685 2655 2686 2716 2711 2681 2692 2684 2704 2712 2686 2698 2708 2665 2703 2705 2709 2710 2684 2700 2745 2705 2700 2754

Tree=0
num_leaves=31
num_cat=0
split_feature=16 9 9 9 9 9 9 9 9 9 9 9 9 9 9 9 9 9 18 18 9 18 9 9 9 9 9 9 9 9
split_gain=3.29933e+11 9.48377e+11 1.7112e+11 1.62693e+11 3.5884e+10 3.3218e+10 2.32038e+10 2.07018e+10 9.50955e+09 4.94742e+09 4.68581e+09 4.56329e+09 4.51729e+09 2.69149e+09 2.56587e+09 2.03474e+09 1.82326e+09 1.80669e+09 1.36024e+09 1.68745e+09 2.44112e+09 1.33925e+09 1.15575e+09 9.60865e+08 7.36427e+08 7.00116e+08 5.89271e+08 5.09683e+08 4.50697e+08 4.29097e+08
threshold=26202.650000000005 55.500000000000007 136.50000000000003 9.5000000000000018 91.500000000000014 -10.499999999999998 213.50000000000003 31.500000000000004 -31.499999999999996 50.500000000000007 71.500000000000014 175.50000000000003 110.50000000000001 19.500000000000004 43.500000000000007 249.50000000000003 1.0000000180025095e-35 -19.499999999999996 379.50000000000006 371.50000000000006 15.500000000000002 12.500000000000002 138.50000000000003 158.50000000000003 123.50000000000001 80.500000000000014 102.50000000000001 64.500000000000014 8.5000000000000018 -41.499999999999993
decision_type=2 2 2 2 2 2 2 2 2 2 2 2 2 2 2 2 2 2 2 2 2 2 2 2 2 2 2 2 2 2
left_child=9 3 4 5 10 8 11 13 29 18 27 23 26 -5 -9 -8 -7 -10 19 28 -21 -11 -23 -4 -14 -12 -6 -3 -1 -2
right_child=1 2 6 7 12 16 15 14 17 21 25 -13 24 -15 -16 -17 -18 -19 -20 20 -22 22 -24 -25 -26 -27 -28 -29 -30 -31
leaf_value=2551.9099243456276 873.6837112225478 4616.2337112225478 7501.4322116197936 3061.8039304878789 5856.0873546884577 2398.2246691415821 9871.6906959695716 3856.5768954187229 1718.6555503030077 2634.6922823011387 5177.2902329616791 8857.5043727235734 6529.5693232017147 3447.0671815966707 4272.9154656085129 11155.113515910049 2698.545292010413 2015.7552624046402 2039.7149897056208 2652.3506015134608 3591.9722040610895 2725.5235338337047 2917.3813293986254 8136.3139065350488 6941.7946660287189 5523.2858120628844 6235.8600243235105 4903.9173650687026 2595.6086094088078 1258.1503778892145
leaf_weight=6184 94 151 59 352 110 297 21 308 348 1367 115 61 96 374 285 30 633 497 48 95 39 1594 391 40 79 119 65 104 3817 42
leaf_count=6184 94 151 59 352 110 297 21 308 348 1367 115 61 96 374 285 30 633 497 48 95 39 1594 391 40 79 119 65 104 3817 42
internal_value=2847.48 3612.77 6223.58 2764.06 5583.38 2174.43 8769.21 3618.32 1768.49 2605.48 5030.1 8177.16 6356.4 3260.27 4056.67 10626.6 2602.64 1893.4 2570.8 2573.31 2925.82 2710.86 2763.32 7757.95 6715.66 5353.25 5997.15 4733.56 2568.59 992.416
internal_weight=17815 4280 1050 3230 839 1911 211 1319 981 13535 489 160 350 726 593 51 930 845 10183 10135 134 3352 1985 99 175 234 175 255 10001 136
internal_count=17815 4280 1050 3230 839 1911 211 1319 981 13535 489 160 350 726 593 51 930 845 10183 10135 134 3352 1985 99 175 234 175 255 10001 136
is_linear=0
shrinkage=1


Tree=1
num_leaves=31
num_cat=0
split_feature=16 9 9 9 9 9 9 9 9 9 9 9 9 9 9 16 9 9 9 9 18 18 9 18 9 9 18 9 0 9
split_gain=2.67245e+11 7.68448e+11 1.39898e+11 1.32007e+11 2.96503e+10 2.58157e+10 1.88386e+10 1.66463e+10 7.93905e+09 4.023e+09 4.01971e+09 3.49108e+09 2.70427e+09 2.45842e+09 2.08137e+09 2.05466e+09 1.67679e+09 1.59453e+09 1.43867e+09 1.22202e+09 1.07763e+09 8.17271e+08 7.96379e+08 7.31277e+08 1.10143e+09 6.14734e+08 5.89508e+08 5.15391e+08 4.74193e+08 4.09042e+08
threshold=26202.650000000005 57.500000000000007 11.500000000000002 136.50000000000003 -9.4999999999999982 94.500000000000014 210.50000000000003 34.500000000000007 -30.499999999999996 76.500000000000014 38.500000000000007 175.50000000000003 112.50000000000001 23.500000000000004 247.00000000000003 26199.850000000002 46.500000000000007 -18.499999999999996 2.5000000000000004 122.50000000000001 379.50000000000006 9.5000000000000018 155.50000000000003 373.50000000000006 10.500000000000002 66.500000000000014 12.500000000000002 -3.4999999999999996 35.000000000000007 -40.499999999999993
decision_type=2 2 2 2 2 2 2 2 2 2 2 2 2 2 2 2 2 2 2 2 2 2 2 2 2 2 2 2 2 2
left_child=10 2 4 5 8 9 11 13 29 25 20 22 -7 -4 -8 19 -9 -10 27 26 23 -21 -5 -1 -25 -3 -12 -6 -14 -2
right_child=1 3 7 6 18 12 14 16 17 -11 15 -13 28 -15 -16 -17 -18 -19 -20 21 -22 -23 -24 24 -26 -27 -28 -29 -30 -31
leaf_value=-255.22600242711405 -1766.5161601562502 1668.079175482856 289.00435226037922 4149.7777944711543 -476.7484451894685 2928.163132261619 6187.4326636904771 1012.8235996972319 -993.51621822527977 2398.2794620646769 -222.70021138402277 5391.19367717161 3324.7677734375002 654.93705250809842 7468.665991210938 805.93583506708558 1364.6433946078432 -722.37192413913226 -58.637928575058481 -173.1462703462814 -726.99023488362627 19.350776171467849 4717.7499251994686 -200.49910405351875 455.02424994574653 1963.9862226277373 -135.54962408919894 -244.21048737371157 3673.9474609375002 -1388.1450878906251
leaf_weight=9156 100 144 417 52 127 156 21 289 402 201 1333 59 71 328 32 23 255 471 463 331 48 661 47 89 36 137 1858 382 86 40
leaf_count=9156 100 144 417 52 127 156 21 289 402 201 1333 59 71 328 32 23 255 471 463 331 48 661 47 89 36 137 1858 382 86 40
internal_value=-2.92089e-07 688.762 -53.9917 3106.04 -580.752 2515.89 5329.56 757.195 -959.337 2056.69 -217.799 4782.3 3223.04 450.113 6961.01 -136.637 1177.74 -847.229 -186.198 -141.82 -254.39 -44.8796 4419.42 -251.946 -11.7084 1812.35 -171.956 -302.231 3516.04 -1658.41
internal_weight=17815 4280 3274 1006 1985 795 211 1289 1013 482 13535 158 313 745 53 4206 544 873 972 4183 9329 992 99 9281 125 281 3191 509 157 140
internal_count=17815 4280 3274 1006 1985 795 211 1289 1013 482 13535 158 313 745 53 4206 544 873 972 4183 9329 992 99 9281 125 281 3191 509 157 140
is_linear=0
shrinkage=0.1


Tree=2
num_leaves=31
num_cat=0
split_feature=16 9 9 9 9 9 9 9 9 9 9 0 9 9 9 9 9 16 9 18 18 18 9 9 9 9 9 9 18 9
split_gain=2.16469e+11 6.23004e+11 1.17437e+11 1.0066e+11 2.17264e+10 1.98249e+10 1.91385e+10 1.37096e+10 5.71848e+09 4.63385e+09 3.33726e+09 3.29437e+09 2.25577e+09 2.05196e+09 1.97212e+09 1.88075e+09 1.57142e+09 1.52333e+09 1.14608e+09 1.01556e+09 9.11333e+08 8.49918e+08 7.92619e+08 6.1303e+08 6.03707e+08 5.06623e+08 4.92257e+08 3.99401e+08 3.20864e+08 3.14247e+08
threshold=26202.650000000005 53.500000000000007 129.50000000000003 7.5000000000000009 85.500000000000014 -12.499999999999998 207.50000000000003 28.500000000000004 -33.499999999999993 160.50000000000003 102.50000000000001 27.000000000000004 69.500000000000014 247.00000000000003 40.500000000000007 -2.4999999999999996 17.500000000000004 26199.850000000002 -22.499999999999996 15.500000000000002 378.50000000000006 371.50000000000006 166.50000000000003 16.500000000000004 180.50000000000003 15.500000000000002 120.50000000000001 143.50000000000003 6.5000000000000009 60.500000000000007
decision_type=2 2 2 2 2 2 2 2 2 2 2 2 2 2 2 2 2 2 2 2 2 2 2 2 2 2 2 2 2 2
left_child=11 3 4 5 12 8 9 16 -2 27 -6 20 29 -8 -9 -7 -5 19 -10 28 21 25 -21 -23 -11 -1 -12 -4 -13 -3
right_child=1 2 6 7 10 15 13 14 18 24 26 17 -14 -15 -16 -17 -18 -19 -20 22 -22 23 -24 -25 -26 -27 -28 -29 -30 -31
leaf_value=-238.03437412194731 -1539.9753691882624 1373.2552056760205 3477.6033072916671 122.34430811116984 2361.268271205357 -473.37020354094329 5512.6598125 733.11155941611844 -1001.4691892260175 4352.6182685319773 2849.1180468750003 -212.75446221676867 1915.6765443428078 6721.7995239257816 1085.052846959594 -161.35093953683204 420.42433500068137 617.76295671134164 -729.38300101364712 -72.312992730127391 -576.87808193630644 -53.338919790167566 165.58890201023647 568.89623657226571 4868.5342447916664 -190.92271568280347 3182.3564808238639 3879.6760137648812 -124.8457253224588 1589.879176988059
leaf_weight=6979 123 147 60 364 175 270 25 323 215 43 135 692 199 32 314 679 344 29 553 1076 72 76 161 20 48 3392 66 42 1038 123
leaf_count=6979 123 147 60 364 175 270 25 323 215 43 135 692 199 32 314 679 344 29 553 1076 72 76 161 20 48 3392 66 42 1038 123
internal_value=2.30719e-06 619.886 2677.53 -87.5315 2114.24 -568.179 4581.48 570.008 -906.938 4105.98 2680.55 -196.019 1660.22 6191.48 906.596 -250.124 267.174 -103.488 -805.553 -110.538 -222.323 -219.884 -41.3492 76.2934 4624.75 -222.626 2958.54 3643.16 -160.009 1471.94
internal_weight=17815 4280 1095 3185 845 1840 250 1345 891 193 376 13535 469 57 637 949 708 2996 768 2967 10539 10467 1237 96 91 10371 201 102 1730 270
internal_count=17815 4280 1095 3185 845 1840 250 1345 891 193 376 13535 469 57 637 949 708 2996 768 2967 10539 10467 1237 96 91 10371 201 102 1730 270
is_linear=0
shrinkage=0.1


Tree=3
num_leaves=31
num_cat=0
split_feature=16 9 9 9 9 9 9 9 9 9 9 9 9 9 9 9 9 18 18 18 9 9 9 9 9 9 9 9 16 9
split_gain=1.7534e+11 5.04803e+11 9.77794e+10 7.85848e+10 1.83933e+10 1.58099e+10 1.52126e+10 1.10769e+10 4.35047e+09 3.91338e+09 3.10954e+09 2.74551e+09 1.91212e+09 1.75813e+09 1.66208e+09 1.6332e+09 1.12792e+09 8.14456e+08 7.49979e+08 9.53531e+08 1.47435e+09 7.23287e+08 7.13583e+08 4.93875e+08 3.60346e+08 3.48662e+08 3.47263e+08 3.15042e+08 3.06633e+08 3.05086e+08
threshold=26202.650000000005 52.500000000000007 128.50000000000003 6.5000000000000009 83.500000000000014 207.50000000000003 -13.499999999999998 26.500000000000004 -32.499999999999993 160.50000000000003 102.50000000000001 50.500000000000007 -4.4999999999999991 38.500000000000007 247.00000000000003 65.500000000000014 15.500000000000002 8.5000000000000018 379.50000000000006 371.50000000000006 20.500000000000004 -21.499999999999996 110.50000000000001 181.50000000000003 120.50000000000001 1.0000000180025095e-35 143.50000000000003 263.50000000000006 26198.550000000003 -2.4999999999999996
decision_type=2 2 2 2 2 2 2 2 2 2 2 2 2 2 2 2 2 2 2 2 2 2 2 2 2 2 2 2 2 2
left_child=11 3 4 6 15 9 8 16 -2 26 -6 18 -8 -9 -7 -3 -5 -13 19 29 25 -10 28 -11 -12 -21 -4 -24 -19 -1
right_child=1 2 5 7 10 14 12 13 21 23 24 17 -14 -15 -16 -17 -18 22 -20 20 -22 -23 27 -25 -26 -27 -28 -29 -30 -31
leaf_value=-226.95405374299978 -1363.9648185961175 1271.8701235391261 3121.6525268554688 78.377315560229491 2098.1663042641626 4961.394093750001 -467.07459509194308 612.70418851468662 -874.50741932574044 3931.8575747282612 2564.2063281250003 -179.77618765724083 -161.58522595287076 937.41252163641479 6049.6198242187502 1645.9789484797298 333.74221728372436 -112.38558416320063 -596.60341796875002 -401.86111101422989 740.63917518028848 -661.92225211007258 -6.7272155211527664 4397.8125086805558 2855.4322895665323 8.1450637817382816 3491.7084356398809 299.66732596261159 272.25142982119604 -190.68474898796671
leaf_weight=3655 132 246 64 351 203 25 294 333 249 46 135 892 676 334 32 222 341 1589 48 28 26 448 815 45 62 80 42 35 21 6346
leaf_count=3655 132 246 64 351 203 25 294 333 249 46 135 892 676 334 32 222 341 1589 48 28 26 448 815 45 62 80 42 35 21 6346
internal_value=-1.68886e-06 557.898 2379.9 -89.4381 1874.91 4105.62 -523.006 484.505 -837.56 3681.24 2372.83 -176.417 -254.177 775.302 5572.33 1449.33 204.215 -97.9171 -202.257 -200.389 64.5979 -737.867 -68.2349 4162.27 2655.86 -98.1528 3268.28 5.88903 -107.369 -203.94
internal_weight=17815 4280 1122 3158 868 254 1799 1359 829 197 400 13535 970 667 57 468 692 3352 10183 10135 134 697 2460 91 197 108 106 850 1610 10001
internal_count=17815 4280 1122 3158 868 254 1799 1359 829 197 400 13535 970 667 57 468 692 3352 10183 10135 134 697 2460 91 197 108 106 850 1610 10001
is_linear=0
shrinkage=0.1


Tree=4
num_leaves=31
num_cat=0
split_feature=16 9 9 9 9 9 9 9 9 9 9 9 9 9 9 9 9 16 9 18 9 18 9 0 9 18 9 9 3 9
split_gain=1.42025e+11 4.09031e+11 8.07255e+10 6.203e+10 1.47664e+10 1.34757e+10 1.1569e+10 9.23918e+09 3.52023e+09 3.38652e+09 2.25852e+09 1.96737e+09 1.77808e+09 1.71702e+09 1.46755e+09 1.34629e+09 9.33633e+08 6.90563e+08 1.71432e+09 6.52349e+08 5.98991e+08 5.59971e+08 4.84997e+08 4.26796e+08 4.20834e+08 5.68184e+08 3.56125e+08 3.35272e+08 2.57189e+08 2.49451e+08
threshold=26202.650000000005 51.500000000000007 126.50000000000001 5.5000000000000009 86.500000000000014 207.50000000000003 -14.499999999999998 25.500000000000004 160.50000000000003 -35.499999999999993 70.500000000000014 70.500000000000014 105.50000000000001 -5.4999999999999991 36.500000000000007 247.00000000000003 14.500000000000002 26201.650000000005 19.500000000000004 14.500000000000002 -23.499999999999996 379.50000000000006 181.50000000000003 43.000000000000007 4.5000000000000009 372.50000000000006 59.500000000000007 140.50000000000003 120.50000000000001 44.500000000000007
decision_type=2 2 2 2 2 2 2 2 2 2 2 2 2 2 2 2 2 2 2 2 2 2 2 2 2 2 2 2 2 2
left_child=10 3 4 6 11 8 9 16 27 -2 17 26 28 -8 -9 -7 -5 21 -19 -12 -11 24 -21 -10 -1 -26 -3 -4 -6 -16
right_child=1 2 5 7 12 15 13 14 23 20 19 -13 -14 -15 29 -17 -18 18 -20 22 -22 -23 -24 -25 25 -27 -28 -29 -30 -31
leaf_value=-198.13333641428636 -1260.6687376903888 1080.9834893973216 2762.7163360595705 47.699018858591941 1819.7665027296689 4465.2546406250003 -442.48319570128825 515.73544145063931 3490.2856188322367 -833.40995752478159 -120.85688211622386 1581.1181126912436 2401.5694088855421 -159.28719424293155 734.03574719551284 5444.65771484375 276.74402203247422 -191.6217277844747 891.65756719680076 -39.243254018358648 -621.77894841041893 -539.43361901571586 158.9638860199891 3929.4238207547169 -162.04850895254685 183.4405035018921 1287.7387947130503 3102.7824476709907 2057.3605700804455 898.99493739839238
leaf_weight=5331 119 175 64 361 83 25 319 308 38 186 1178 192 166 651 195 32 351 48 21 992 476 43 141 53 5733 48 159 53 101 173
leaf_count=5331 119 175 64 361 83 25 319 308 38 186 1178 192 166 651 195 32 351 48 21 992 476 43 141 53 5733 48 159 53 101 173
internal_value=-3.80509e-07 502.108 2123.58 -87.2834 1660.95 3652.88 -483.066 412.007 3279.58 -769.527 -158.775 1326.04 2164.27 -252.421 676.789 5015.09 160.613 -177.311 138.072 -68.7515 -681.24 -179.262 -14.5767 3746.05 -177.868 -159.18 1179.41 2916.76 1950.18 811.584
internal_weight=17815 4280 1141 3139 876 265 1751 1388 208 781 13535 526 350 970 676 57 712 11224 69 2311 662 11155 1133 91 11112 5781 334 117 184 368
internal_count=17815 4280 1141 3139 876 265 1751 1388 208 781 13535 526 350 970 676 57 712 11224 69 2311 662 11155 1133 91 11112 5781 334 117 184 368
is_linear=0
shrinkage=0.1


Tree=5
num_leaves=31
num_cat=0
split_feature=16 9 9 9 9 9 9 9 9 9 9 9 9 16 9 9 9 9 18 9 9 18 18 9 9 9 9 0 9 9
split_gain=1.1504e+11 3.31341e+11 6.10039e+10 5.55294e+10 1.34247e+10 1.11255e+10 8.18563e+09 7.40229e+09 3.28155e+09 1.87417e+09 1.78462e+09 1.60583e+09 1.6002e+09 1.04507e+09 1.00538e+09 9.33625e+08 7.7215e+08 7.40486e+08 6.61568e+08 6.7367e+08 5.28201e+08 4.94034e+08 5.20278e+08 3.88403e+08 3.6218e+08 3.54065e+08 3.44862e+08 2.54032e+08 2.4993e+08 2.06797e+08
threshold=26202.650000000005 54.500000000000007 136.50000000000003 8.5000000000000018 91.500000000000014 -11.499999999999998 213.50000000000003 30.500000000000004 -28.499999999999996 38.500000000000007 75.500000000000014 110.50000000000001 175.50000000000003 26199.850000000002 20.500000000000004 41.500000000000007 1.0000000180025095e-35 254.50000000000003 8.5000000000000018 107.50000000000001 -17.499999999999996 378.50000000000006 373.50000000000006 -43.499999999999993 150.50000000000003 64.500000000000014 11.500000000000002 35.000000000000007 220.50000000000003 99.500000000000014
decision_type=2 2 2 2 2 2 2 2 2 2 2 2 2 2 2 2 2 2 2 2 2 2 2 2 2 2 2 2 2 2
left_child=9 3 4 5 10 8 12 14 23 21 25 29 24 18 -5 -9 -7 -8 -11 -20 -10 22 -1 -2 -4 -3 -24 -13 -21 -6
right_child=1 2 6 7 11 16 17 15 20 13 -12 27 -14 -15 -16 -17 -18 -19 19 28 -22 -23 26 -25 -26 -27 -28 -29 -30 -31
leaf_value=-168.34382796514603 -1204.0415736607144 1037.3344720851608 2685.6313299005683 122.49320155604606 1756.0971147017044 -283.45791925603697 4257.2318080357145 570.51089067166174 -637.47598112587627 -153.65742727535874 1531.3875105424361 2172.7839222301136 3550.6014696465168 584.75053339419162 358.01491828918461 820.46086081583007 -92.79061958600812 5023.0057574728271 -96.927491360871386 -16.780456687194295 -472.49104560959506 -428.81676974826388 -71.764144743734334 -897.13844159915118 3070.5525887784092 1243.6386664496529 319.26281917796416 2413.7535380747127 125.15852894943032 1973.5123518318965
leaf_weight=9156 84 171 44 418 88 330 28 293 428 1206 176 88 61 23 320 305 596 23 2087 741 355 72 67 81 55 162 34 87 149 87
leaf_count=9156 84 171 44 418 88 330 28 293 428 1206 176 88 61 23 320 305 596 23 2087 741 355 72 67 81 55 162 34 87 149 87
internal_value=-8.25937e-08 451.897 1975.87 -56.0931 1601.64 -407.271 3499.37 436.502 -648.082 -142.898 1273.83 2078.38 3147.72 -87.4786 224.616 697.994 -160.739 4602.58 -91.1748 -65.8627 -562.674 -167.883 -165.854 -1053.38 2899.48 1137.7 59.8687 2292.58 6.98236 1864.18
internal_weight=17815 4280 1070 3210 859 1874 211 1336 948 13535 509 350 160 4206 738 598 926 51 4183 2977 783 9329 9257 165 99 333 101 175 890 175
internal_count=17815 4280 1070 3210 859 1874 211 1336 948 13535 509 350 160 4206 738 598 926 51 4183 2977 783 9329 9257 165 99 333 101 175 890 175
is_linear=0
shrinkage=0.1


Tree=6
num_leaves=31
num_cat=0
split_feature=16 9 9 9 9 9 9 9 9 9 9 9 9 9 9 9 9 9 18 9 18 18 9 9 18 0 0 3 18 16
split_gain=9.31827e+10 2.68662e+11 5.30678e+10 4.08258e+10 9.37528e+09 9.30692e+09 7.00379e+09 6.65897e+09 2.46506e+09 2.03811e+09 1.53106e+09 1.49897e+09 1.32408e+09 1.12591e+09 8.56635e+08 8.4596e+08 7.94442e+08 5.01134e+08 1.94865e+09 4.98657e+08 4.67056e+08 3.92512e+08 3.50355e+08 2.93207e+08 2.22055e+08 2.10291e+08 2.01254e+08 1.77408e+08 1.67196e+08 1.65689e+08
threshold=26202.650000000005 51.500000000000007 125.50000000000001 4.5000000000000009 183.50000000000003 81.500000000000014 -15.499999999999998 26.500000000000004 235.50000000000003 -35.499999999999993 80.500000000000014 99.500000000000014 -6.4999999999999991 150.50000000000003 37.500000000000007 16.500000000000004 64.500000000000014 15.500000000000002 370.50000000000006 28.500000000000004 16.500000000000004 379.50000000000006 -24.499999999999996 180.50000000000003 11.500000000000002 33.000000000000007 45.000000000000007 122.50000000000001 4.5000000000000009 26263.650000000005
decision_type=2 2 2 2 2 2 2 2 2 2 2 2 2 2 2 2 2 2 2 2 2 2 2 2 2 2 2 2 2 2
left_child=10 3 5 6 13 16 9 15 26 -2 17 29 -8 -4 -9 -5 -3 21 24 -20 28 -1 -11 -22 -19 -13 -6 -15 -12 -7
right_child=1 2 4 7 8 11 12 14 -10 22 20 25 -14 27 -16 -17 -18 18 19 -21 23 -23 -24 -25 -26 -27 -28 -29 -30 -31
leaf_value=-156.81922790394586 -1023.224212184874 910.52051326026594 2294.9901403356484 43.029598359471748 3067.0209635416668 1591.2271285076531 -378.73763335305159 434.91238853053051 4345.9479029605263 -700.22090231788081 -148.35989779106475 1725.2840907505579 -141.28316569948905 2667.2947214226974 665.3054927382359 253.70444429239652 1170.0761137058423 -148.61746364407773 238.95795491536461 915.0513989257812 -11.764352340683859 -443.74106547037763 -523.26793382432732 163.16887054443362 -103.01171885295088 1954.1094981018928 3450.998382411859 2989.6528666834679 -63.562260285774407 1407.3410863759566
leaf_weight=7126 119 242 108 485 21 98 383 304 38 151 318 56 607 38 344 314 230 1869 24 20 663 48 432 112 2490 142 39 31 865 98
leaf_count=7126 119 242 108 485 21 98 383 304 38 151 318 56 607 38 344 314 230 1869 24 20 663 48 432 112 2490 142 39 31 865 98
internal_value=-1.91623e-06 406.707 1720.82 -70.9631 2931.05 1336.52 -404.471 319.012 3715.74 -646.081 -128.608 1695.33 -233.147 2496.58 557.22 125.823 1037 -142.44 -115.882 546.273 -46.8257 -158.739 -569.1 13.5163 -122.566 1889.39 3316.61 2812.12 -86.3566 1499.28
internal_weight=17815 4280 1141 3139 275 866 1692 1447 98 702 13535 394 990 177 648 799 472 11577 4403 44 1958 7174 583 775 4359 198 60 69 1183 196
internal_count=17815 4280 1141 3139 275 866 1692 1447 98 702 13535 394 990 177 648 799 472 11577 4403 44 1958 7174 583 775 4359 198 60 69 1183 196
is_linear=0
shrinkage=0.1


Tree=7
num_leaves=31
num_cat=0
split_feature=16 9 9 9 9 9 9 9 9 9 9 9 9 9 9 18 9 9 9 9 18 18 9 3 3 0 0 16 18 9
split_gain=7.5478e+10 2.17653e+11 3.99232e+10 3.74628e+10 8.84082e+09 7.46858e+09 5.3921e+09 4.40776e+09 2.36893e+09 1.33783e+09 1.26257e+09 1.04027e+09 8.94302e+08 5.93682e+08 5.44035e+08 5.15068e+08 4.83952e+08 4.33361e+08 3.56963e+08 3.52064e+08 3.4067e+08 5.77157e+08 4.41024e+08 2.30453e+08 2.29401e+08 2.19832e+08 2.13144e+08 1.74663e+08 1.66605e+08 1.64826e+08
threshold=26202.650000000005 57.500000000000007 12.500000000000002 136.50000000000003 -8.4999999999999982 91.500000000000014 226.50000000000003 34.500000000000007 -26.499999999999996 175.50000000000003 45.500000000000007 109.50000000000001 75.500000000000014 22.500000000000004 47.500000000000007 16.500000000000004 3.5000000000000004 -43.499999999999993 -16.499999999999996 158.50000000000003 378.50000000000006 371.50000000000006 23.500000000000004 137.50000000000003 84.500000000000014 45.000000000000007 39.000000000000007 26198.550000000003 348.50000000000006 -7.4999999999999991
decision_type=2 2 2 2 2 2 2 2 2 2 2 2 2 2 2 2 2 2 2 2 2 2 2 2 2 2 2 2 2 2
left_child=10 2 4 5 8 12 9 13 17 26 20 28 -3 -4 -9 -12 -6 -2 -10 27 21 29 -23 -13 -8 -11 -5 -17 -7 -1
right_child=1 3 7 6 16 11 24 14 18 25 15 23 -14 -15 -16 19 -18 -19 -20 -21 -22 22 -24 -25 -26 -27 -28 -29 -30 -31
leaf_value=-153.46398252035686 -981.31501116071433 951.63459899221652 156.64461849333574 2161.267208614865 -148.58947303458436 1434.1601905616553 3635.5607142857148 544.26531283780457 -494.52312396599268 2736.4712086397062 -96.840415591453691 1783.0449448094223 1241.5621887207033 339.8234146414041 747.19468205544808 -42.773225737376166 -6.3351296537599451 -690.3310640058445 -362.30299541288969 118.06250276777642 -351.12505102157593 -2.1946255826401986 508.39712495349704 2038.915254720052 4108.7825390625003 3088.7073163006758 2464.5564043598793 214.17261623806428 1642.1206898834746 -125.95800248558626
leaf_weight=3312 84 269 347 37 584 111 21 318 425 34 2175 132 176 361 226 1312 405 131 393 163 72 87 21 48 20 37 62 27 59 6366
leaf_count=3312 84 269 347 37 584 111 21 318 425 34 2175 132 176 361 226 1312 405 131 393 163 72 87 21 48 20 37 62 27 59 6366
internal_value=1.71627e-06 366.037 -29.2575 1652.51 -304.037 1338.13 2837.03 414.516 -508.636 2588.77 -115.747 1683.73 1066.3 250.045 628.571 -65.7382 -90.3357 -804.018 -430.999 -20.7001 -134.4 -132.806 97.0871 1851.28 3866.4 2920.03 2351.21 -37.5921 1506.33 -135.371
internal_weight=17815 4280 3274 1006 2022 795 211 1252 1033 170 13535 350 445 708 544 3677 989 215 818 1502 9858 9786 108 180 41 71 99 1339 170 9678
internal_count=17815 4280 3274 1006 2022 795 211 1252 1033 170 13535 350 445 708 544 3677 989 215 818 1502 9858 9786 108 180 41 71 99 1339 170 9678
is_linear=0
shrinkage=0.1


Tree=8
num_leaves=31
num_cat=0
split_feature=16 9 9 9 9 9 9 9 9 9 9 9 9 9 9 9 9 18 9 18 9 9 18 0 18 3 9 3 18 8
split_gain=6.11372e+10 1.76424e+11 3.41054e+10 2.89044e+10 7.16106e+09 5.45108e+09 4.3676e+09 3.96569e+09 1.92611e+09 1.09812e+09 1.06989e+09 9.52708e+08 5.66631e+08 4.94571e+08 4.57016e+08 4.09475e+08 3.61378e+08 9.05517e+08 8.84396e+08 3.33579e+08 3.26826e+08 2.93328e+08 2.80338e+08 2.23944e+08 1.86005e+08 1.85815e+08 1.6114e+08 1.6028e+08 1.47686e+08 1.45642e+08
threshold=26202.650000000005 59.500000000000007 12.500000000000002 136.50000000000003 -8.4999999999999982 96.500000000000014 226.50000000000003 33.500000000000007 -27.499999999999996 172.50000000000003 85.500000000000014 78.500000000000014 47.500000000000007 120.50000000000001 21.500000000000004 1.5000000000000002 1.0000000180025095e-35 370.50000000000006 28.500000000000004 20.500000000000004 -17.499999999999996 -40.499999999999993 377.50000000000006 45.000000000000007 6.5000000000000009 84.500000000000014 213.50000000000003 120.50000000000001 9.5000000000000018 62.750000000000007
decision_type=2 2 2 2 2 2 2 2 2 2 2 2 2 2 2 2 2 2 2 2 2 2 2 2 2 2 2 2 2 2
left_child=10 2 4 5 8 11 9 14 21 27 16 29 -9 -7 -4 -6 22 28 -19 24 -10 -2 -1 -11 -12 -8 -21 -5 -18 -3
right_child=1 3 7 6 15 13 25 12 20 23 19 -13 -14 -15 -16 -17 17 18 -20 26 -22 -23 -24 -25 -26 -27 -28 -29 -30 -31
leaf_value=-136.06049181918277 -862.11175488281242 839.16063352375375 128.90771005964123 1953.8273837002844 -164.34889560915391 1473.8761333550347 3272.0046130952383 485.55040670611902 -457.82839172819905 2444.2694358648255 -113.30608181566446 1178.609373139881 681.16975923695964 1746.9662946428573 292.71106339873876 -31.447152884415438 -123.79621609149125 48.576573952213749 783.00441162109382 29.180878091735583 -333.01602272727274 -614.69241306470792 -329.98964992322425 2779.8366078969593 -32.068563940224003 3697.9040820312498 230.22760792607846 2220.7929093070652 -95.451976540377757 997.77698174838372
leaf_weight=3883 100 173 303 44 371 180 21 334 401 43 382 210 266 105 389 618 3061 91 20 299 440 92 76 37 1075 20 46 46 4602 87
leaf_count=3883 100 173 303 44 371 180 21 334 401 43 382 210 266 105 389 618 3061 91 20 299 440 92 76 37 1075 20 46 46 4602 87
internal_value=1.06189e-06 329.433 -17.1992 1518.6 -273.633 1229.43 2553.33 384.124 -457.773 2329.9 -104.172 1020.19 572.275 1574.49 220.988 -81.3021 -115.191 -102.667 180.906 -32.4312 -392.528 -743.557 -139.783 2599.47 -53.3676 3479.76 55.9871 2090.28 -106.774 892.236
internal_weight=17815 4280 3314 966 2022 755 211 1292 1033 170 13535 470 600 285 692 989 11733 7774 111 1802 841 192 3959 80 1457 41 345 90 7663 260
internal_count=17815 4280 3314 966 2022 755 211 1292 1033 170 13535 470 600 285 692 989 11733 7774 111 1802 841 192 3959 80 1457 41 345 90 7663 260
is_linear=0
shrinkage=0.1


Tree=9
num_leaves=31
num_cat=0
split_feature=16 9 9 9 9 9 9 9 9 9 9 9 9 9 16 9 9 9 9 9 18 18 18 3 8 8 3 18 8 18
split_gain=4.95211e+10 1.42992e+11 2.89481e+10 2.12296e+10 5.17266e+09 4.97439e+09 4.07241e+09 3.06762e+09 1.19989e+09 1.07186e+09 9.35844e+08 8.80027e+08 8.56175e+08 6.05932e+08 5.66814e+08 4.12002e+08 3.75185e+08 3.67392e+08 3.5827e+08 2.46119e+08 2.39033e+08 2.31945e+08 2.2586e+08 2.05532e+08 1.40657e+08 1.39926e+08 1.28576e+08 1.23697e+08 1.14145e+08 1.13395e+08
threshold=26202.650000000005 50.500000000000007 125.50000000000001 5.5000000000000009 79.500000000000014 193.50000000000003 -14.499999999999998 27.500000000000004 -35.499999999999993 247.00000000000003 99.500000000000014 33.500000000000007 150.50000000000003 -3.4999999999999996 26199.850000000002 16.500000000000004 123.50000000000001 67.500000000000014 39.500000000000007 -23.499999999999996 20.500000000000004 379.50000000000006 15.500000000000002 152.50000000000003 56.250000000000007 57.750000000000007 137.50000000000003 5.5000000000000009 55.250000000000007 373.50000000000006
decision_type=2 2 2 2 2 2 2 2 2 2 2 2 2 2 2 2 2 2 2 2 2 2 2 2 2 2 2 2 2 2
left_child=11 3 4 6 17 12 8 15 -2 -7 25 21 26 -8 16 -5 22 28 -9 -10 27 29 -13 -14 -12 -6 -4 -18 -3 -1
right_child=1 2 5 7 10 9 13 18 19 -11 24 14 23 -15 -16 -17 20 -19 -20 -21 -22 -23 -24 -25 -26 -27 -28 -29 -30 -31
leaf_value=-112.17218840724928 -749.06790268841917 629.94336688701924 1593.8932003348216 40.733577495981272 1008.7426943824405 2502.3648092830881 -253.02807977617951 337.17681552525323 -501.70940886466735 3240.6921997070312 1285.228577867445 -98.610875393151034 2001.0315917968751 -89.335102636958496 407.4218130258414 188.34487638585711 -100.22882073515206 864.09739231418916 492.04536603338067 -366.0526099966354 101.15430359064146 -331.2555079460144 -48.218658135160027 2347.2885091145831 1454.3508460499415 1167.1656972656251 1822.3750616776317 -7.2128055090464436 757.44272967644463 -15.095541760178865
leaf_weight=8774 119 208 70 426 126 51 359 327 186 32 91 1962 60 611 26 340 186 148 275 476 172 48 1627 24 107 100 38 618 106 122
leaf_count=8774 119 208 70 426 126 51 359 327 186 32 91 1962 60 611 26 340 186 148 275 476 172 48 1627 24 107 100 38 618 106 122
internal_value=-1.13427e-07 296.49 1243.87 -56.159 965.681 2140.15 -286.761 239.005 -456.72 2787.02 1217.9 -93.7551 1860.52 -149.918 -58.1649 106.253 -60.8166 734.207 407.922 -404.168 -5.84174 -112.024 -75.7666 2099.96 1376.62 1078.84 1674.28 -28.7314 672.985 -110.841
internal_weight=17815 4280 1161 3119 886 275 1751 1368 781 83 424 13535 192 970 4591 766 4565 462 602 662 976 8944 3589 84 198 226 108 804 314 8896
internal_count=17815 4280 1161 3119 886 275 1751 1368 781 83 424 13535 192 970 4591 766 4565 462 602 662 976 8944 3589 84 198 226 108 804 314 8896
is_linear=0
shrinkage=0.1


Tree=10
num_leaves=31
num_cat=0
split_feature=16 9 9 9 9 9 9 9 9 9 9 9 9 9 9 9 18 16 9 9 9 9 3 18 9 18 9 3 9 18
split_gain=4.01121e+10 1.15904e+11 2.2464e+10 1.90814e+10 4.27854e+09 4.25863e+09 2.99083e+09 2.36992e+09 1.1695e+09 7.24118e+08 6.0881e+08 5.04735e+08 4.40326e+08 4.365e+08 3.44887e+08 3.36546e+08 2.45989e+08 2.33701e+08 6.64383e+08 2.17583e+08 2.15024e+08 1.8262e+08 1.6996e+08 1.66475e+08 1.5659e+08 1.4711e+08 1.58226e+08 1.14071e+08 1.1208e+08 1.09543e+08
threshold=26202.650000000005 59.500000000000007 10.500000000000002 147.50000000000003 -11.499999999999998 96.500000000000014 32.500000000000007 235.50000000000003 -28.499999999999996 67.500000000000014 78.500000000000014 119.50000000000001 180.50000000000003 46.500000000000007 1.0000000180025095e-35 21.500000000000004 13.500000000000002 26201.650000000005 19.500000000000004 -20.499999999999996 207.50000000000003 -6.4999999999999991 129.50000000000003 378.50000000000006 -43.499999999999993 372.50000000000006 11.500000000000002 122.50000000000001 1.5000000000000002 349.50000000000006
decision_type=2 2 2 2 2 2 2 2 2 2 2 2 2 2 2 2 2 2 2 2 2 2 2 2 2 2 2 2 2 2
left_child=9 2 4 5 8 10 15 12 24 17 29 -7 27 -8 -6 -4 -11 21 28 -10 -18 23 -13 -1 -2 -23 -27 -5 -19 -3
right_child=1 3 6 7 14 11 13 -9 19 16 -12 22 -14 -15 -16 -17 20 18 -20 -21 -22 25 -24 -25 -26 26 -28 -29 -30 -31
leaf_value=-113.0826546154011 -722.0655476888021 678.04020496390717 92.908006718549785 1698.9034838299422 -171.52535011985086 1188.4483872767858 378.06539228115867 2860.8630653782893 -408.65838888005692 -69.094806659831363 953.79307617187499 1353.5754239430148 2158.0396659281719 544.07677320577329 -46.599782812066366 228.79141179865056 -17.551768157334259 -283.12113453258166 557.37566906156997 -296.50713169642859 130.40804083993501 -89.133571036049261 1577.9529889787946 -311.093972565407 -527.19665617766202 -35.973560243086382 292.47987457275389 1948.2532531738282 23.559586803729719 814.84021681882029
leaf_weight=3374 84 171 378 43 330 175 342 38 258 1134 210 85 67 295 669 352 1197 22 21 525 107 7536 56 43 81 55 20 32 26 89
leaf_count=3374 84 171 378 43 330 175 342 38 258 1134 210 85 67 295 669 352 1197 22 21 525 107 7536 56 43 81 55 20 32 26 89
internal_value=3.23288e-07 266.841 -14.116 1230.7 -232.273 1018.02 296.602 2159.44 -384.448 -84.3796 827.154 1301.89 1971.73 454.947 -87.8665 158.43 -35.0325 -95.2211 88.2431 -333.461 -5.41089 -96.369 1442.69 -115.574 -626.403 -87.7466 51.614 1805.29 -117.002 724.868
internal_weight=17815 4280 3314 966 1947 786 1367 180 948 13535 470 316 142 637 999 730 2438 11097 69 783 1304 11028 141 3417 165 7611 75 75 48 260
internal_count=17815 4280 3314 966 1947 786 1367 180 948 13535 470 316 142 637 999 730 2438 11097 69 783 1304 11028 141 3417 165 7611 75 75 48 260
is_linear=0
shrinkage=0.1


Tree=11
num_leaves=31
num_cat=0
split_feature=16 9 9 9 9 9 9 9 9 9 9 9 9 9 9 9 9 18 9 9 18 9 18 18 3 18 8 0 3 9
split_gain=3.24908e+10 9.39394e+10 1.8732e+10 1.43953e+10 3.72021e+09 2.95888e+09 2.47043e+09 2.33565e+09 7.63673e+08 7.32034e+08 6.09824e+08 5.21513e+08 4.52629e+08 4.33401e+08 3.55296e+08 3.39302e+08 2.44665e+08 8.56166e+08 2.41826e+08 2.39068e+08 2.04699e+08 1.52533e+08 1.47748e+08 1.4703e+08 1.26987e+08 1.0837e+08 1.07818e+08 1.05005e+08 1.04982e+08 9.90421e+07
threshold=26202.650000000005 51.500000000000007 129.50000000000003 4.5000000000000009 87.500000000000014 210.50000000000003 -15.499999999999998 28.500000000000004 166.50000000000003 -38.499999999999993 98.500000000000014 70.500000000000014 -6.4999999999999991 106.50000000000001 14.500000000000002 254.50000000000003 12.500000000000002 370.50000000000006 41.500000000000007 28.500000000000004 19.500000000000004 -24.499999999999996 16.500000000000004 378.50000000000006 86.500000000000014 3.5000000000000004 49.750000000000007 45.000000000000007 126.50000000000001 239.50000000000003
decision_type=2 2 2 2 2 2 2 2 2 2 2 2 2 2 2 2 2 2 2 2 2 2 2 2 2 2 2 2 2 2
left_child=10 3 4 6 11 8 9 14 24 -2 16 -3 -8 26 -5 -7 23 22 -9 -19 25 -11 -18 -1 -4 -12 -6 -10 -13 -22
right_child=1 2 5 7 13 15 12 18 27 21 20 28 -14 -15 -16 -17 17 19 -20 -21 29 -23 -24 -25 -26 -27 -28 -29 -30 -31
leaf_value=-94.301459239539128 -624.63491667275127 560.9436084861527 1255.0079606681036 18.063179240794408 848.26715519831725 2223.8652213541668 -223.70934758995597 290.38464252888656 1758.4796892132676 -422.95407370350841 -100.78862217077229 697.3653442382813 -84.875603395867401 1175.1434379763721 146.93681215058774 2734.3782523777172 -84.068357405177423 163.70490225332756 421.18340146317445 619.85988647460943 33.446254200483445 -309.42572609230325 -49.197757524343643 -237.96124432086947 1497.3475459558824 -21.051469481520325 1007.9482252388948 2000.984014423077 840.27845960115144 204.65081787109375
leaf_weight=6766 107 334 29 420 65 30 383 357 57 163 209 112 607 164 436 23 3224 27 234 20 305 432 1950 72 85 924 121 26 95 38
leaf_count=6766 107 334 29 420 65 30 383 357 57 163 209 112 607 164 436 23 3224 27 234 20 305 432 1950 72 85 924 121 26 95 38
internal_value=-2.72143e-07 240.157 1017.22 -42.2983 802.592 1782.14 -240.337 189.271 1603.7 -383.831 -75.9416 638.238 -138.586 1056.64 83.7044 2445.41 -83.3677 -67.0666 342.173 357.813 -15.27 -340.527 -70.9262 -95.8141 1435.7 -35.7603 952.146 1834.44 762.953 52.4135
internal_weight=17815 4280 1141 3139 891 250 1692 1447 197 702 13535 541 990 350 856 53 12059 5221 591 47 1476 595 5174 6838 114 1133 186 83 207 343
internal_count=17815 4280 1141 3139 891 250 1692 1447 197 702 13535 541 990 350 856 53 12059 5221 591 47 1476 595 5174 6838 114 1133 186 83 207 343
is_linear=0
shrinkage=0.1


Tree=12
num_leaves=31
num_cat=0
split_feature=16 9 9 9 9 9 9 9 9 9 18 9 9 9 18 9 9 9 9 9 9 18 8 8 9 3 18 18 3 9
split_gain=2.63175e+10 7.62017e+10 1.36286e+10 1.3483e+10 2.57772e+09 2.55977e+09 2.10391e+09 1.90733e+09 7.25023e+08 5.02932e+08 7.55915e+08 4.62468e+08 3.77125e+08 2.95161e+08 2.75167e+08 2.74835e+08 2.71104e+08 2.64543e+08 2.52561e+08 2.49501e+08 1.27621e+08 1.24637e+08 1.11668e+08 1.09309e+08 1.0681e+08 9.40667e+07 9.30023e+07 8.72452e+07 8.44555e+07 7.56707e+07
threshold=26202.650000000005 56.500000000000007 8.5000000000000018 133.50000000000003 89.500000000000014 -12.499999999999998 210.50000000000003 31.500000000000004 -28.499999999999996 25.500000000000004 370.50000000000006 166.50000000000003 112.50000000000001 71.500000000000014 7.5000000000000009 254.50000000000003 -1.4999999999999998 183.50000000000003 45.500000000000007 18.500000000000004 -21.499999999999996 379.50000000000006 56.250000000000007 51.250000000000007 -43.499999999999993 111.50000000000001 345.50000000000006 19.500000000000004 116.50000000000001 -19.499999999999996
decision_type=2 2 2 2 2 2 2 2 2 2 2 2 2 2 2 2 2 2 2 2 2 2 2 2 2 2 2 2 2 2
left_child=9 2 5 4 13 8 11 19 24 21 14 28 22 -3 -11 -8 -7 27 -9 -4 -10 29 -6 -14 -2 -13 -15 -16 -5 -1
right_child=1 3 7 6 12 16 15 18 20 10 -12 25 23 26 17 -17 -18 -19 -20 -21 -22 -23 -24 -25 -26 -27 -28 -29 -30 -31
leaf_value=-106.07931865745603 -587.39547991071436 536.19117035308443 51.312396746558399 1212.9564127604167 816.19131625306375 -165.14721778663431 2001.4786914062502 292.36335771008686 -340.59022985387736 -84.327544115167683 503.99453710937496 1553.1721744791666 991.76571555397732 643.56827773437499 -51.750898535820284 2460.9405570652175 -50.669631626512285 61.600048560668256 421.4394999489856 165.87959705012861 -248.87994391946233 -244.66214739481609 961.13266645551801 1171.8726831896554 -426.45483519000777 1766.8497096011515 777.32136971120087 -19.141194809616159 1408.4433478860294 -78.995261657281219
leaf_weight=1213 84 231 359 39 102 296 30 349 216 1452 25 45 55 125 2373 23 687 273 268 404 510 48 111 87 81 38 89 1254 51 6897
leaf_count=1213 84 231 359 39 102 296 30 349 216 1452 25 45 55 125 2373 23 687 273 268 404 510 48 111 87 81 38 89 1254 51 6897
internal_value=6.24863e-07 216.141 -20.7919 967.583 774.906 -196.411 1649.62 217.694 -319.17 -68.3475 -44.6038 1480.75 975.88 614.579 -47.1664 2200.87 -85.141 -33.3311 348.429 111.974 -276.166 -83.9971 891.724 1102.11 -508.388 1651 699.195 -40.4764 1323.73 -83.0462
internal_weight=17815 4280 3254 1026 800 1874 226 1380 891 13535 5377 173 355 445 5352 53 983 3900 617 763 726 8158 213 142 165 83 214 3627 90 8110
internal_count=17815 4280 3254 1026 800 1874 226 1380 891 13535 5377 173 355 445 5352 53 983 3900 617 763 726 8158 213 142 165 83 214 3627 90 8110
is_linear=0
shrinkage=0.1


Tree=13
num_leaves=31
num_cat=0
split_feature=16 9 9 9 9 9 9 9 9 9 9 9 9 9 9 9 9 18 9 18 18 8 18 3 9 3 18 9 18 8
split_gain=2.13203e+10 6.21583e+10 1.25036e+10 9.48295e+09 2.56078e+09 1.87997e+09 1.69734e+09 1.46003e+09 4.45396e+08 4.43794e+08 4.38252e+08 3.44527e+08 3.08665e+08 3.07297e+08 2.56864e+08 2.48656e+08 1.72004e+08 1.54104e+08 1.3248e+08 1.31136e+08 1.21541e+08 9.66801e+07 8.89859e+07 8.75525e+07 8.74739e+07 8.34463e+07 8.08718e+07 1.00822e+08 8.07692e+07 7.73676e+07
threshold=26201.650000000005 50.500000000000007 130.50000000000003 3.5000000000000004 87.500000000000014 207.50000000000003 24.500000000000004 -16.499999999999996 -39.499999999999993 93.500000000000014 160.50000000000003 67.500000000000014 -7.4999999999999991 106.50000000000001 254.50000000000003 36.500000000000007 13.500000000000002 21.500000000000004 -12.499999999999998 379.50000000000006 359.50000000000006 38.250000000000007 4.5000000000000009 141.50000000000003 -25.499999999999996 134.50000000000003 372.50000000000006 7.5000000000000009 9.5000000000000018 45.750000000000007
decision_type=2 2 2 2 2 2 2 2 2 2 2 2 2 2 2 2 2 2 2 2 2 2 2 2 2 2 2 2 2 2
left_child=9 3 4 7 11 10 16 8 -2 18 -4 20 -9 29 -7 -8 -5 22 19 28 -3 -13 -11 -12 -10 -15 -20 -28 -1 -6
right_child=1 2 5 6 13 14 15 12 24 17 23 21 -14 25 -16 -17 -18 -19 26 -21 -22 -23 -24 -25 -26 -27 27 -29 -30 -31
leaf_value=-68.835987231393702 -510.46902606670676 415.44865927734372 1151.6856791178386 5.1702425434698469 663.74902246093757 1782.1480353860295 196.66261678296468 -191.73206917091653 -350.98875393337676 -76.625940269187637 1397.6026071259471 466.89603213355662 -79.828218905352557 907.01605503015344 2214.8464164402171 315.88130095406865 96.196102196685885 64.455798764934457 -63.873916116775199 -292.33900540259577 566.23127154181986 633.43484446455795 -12.569177518603807 1617.3445703125001 -259.85117701316369 1056.0830426897321 -43.114936578684848 185.2477151804957 -102.95289085062335 809.22177447150739
leaf_weight=1419 104 250 96 459 50 34 344 432 144 270 66 42 574 114 23 356 379 223 8976 31 68 205 1102 25 392 56 58 29 1358 136
leaf_count=1419 104 250 96 459 50 34 344 432 144 270 66 42 574 114 23 356 379 223 8976 31 68 205 1102 25 392 56 58 29 1358 136
internal_value=-2.81315e-08 192.499 817.497 -36.1826 648.873 1453.98 142.352 -203.003 -321.083 -62.1698 1300.73 516.513 -127.882 858.938 1956.75 257.294 46.3383 -12.6436 -68.8242 -87.803 447.691 605.117 -25.1751 1457.97 -284.336 956.12 -62.9439 33.0059 -85.5197 770.116
internal_weight=17815 4349 1165 3184 921 244 1538 1646 640 13466 187 565 1006 356 57 700 838 1595 11871 2808 318 247 1372 91 536 170 9063 87 2777 186
internal_count=17815 4349 1165 3184 921 244 1538 1646 640 13466 187 565 1006 356 57 700 838 1595 11871 2808 318 247 1372 91 536 170 9063 87 2777 186
is_linear=0
shrinkage=0.1


Tree=14
num_leaves=31
num_cat=0
split_feature=9 16 9 9 18 9 18 9 9 9 9 9 9 8 9 9 18 9 9 9 9 18 8 3 0 3 3 18 9 8
split_gain=1.73995e+10 5.0326e+10 1.15375e+10 2.14811e+09 2.56397e+09 2.09934e+09 2.02948e+09 2.02249e+09 1.54897e+09 7.56005e+08 3.82472e+08 3.64373e+08 2.61417e+08 2.31965e+08 2.25863e+08 2.08723e+08 1.59456e+08 1.73569e+08 1.55213e+08 1.49992e+08 1.28807e+08 1.05851e+08 8.50666e+07 8.42505e+07 7.02633e+07 6.51275e+07 6.48392e+07 6.40763e+07 5.13392e+07 4.54208e+07
threshold=45.500000000000007 26200.450000000004 122.50000000000001 1.0000000180025095e-35 327.50000000000006 79.500000000000014 336.50000000000006 193.50000000000003 18.500000000000004 -25.499999999999996 247.00000000000003 148.50000000000003 98.500000000000014 62.750000000000007 -13.499999999999998 32.500000000000007 10.500000000000002 193.50000000000003 61.500000000000007 6.5000000000000009 -43.499999999999993 342.50000000000006 60.750000000000007 137.50000000000003 27.000000000000004 82.500000000000014 147.50000000000003 8.5000000000000018 101.50000000000001 61.250000000000007
decision_type=2 2 2 2 2 2 2 2 2 2 2 2 2 2 2 2 2 2 2 2 2 2 2 2 2 2 2 2 2 2
left_child=3 16 5 6 -5 13 27 11 19 20 25 23 26 18 -11 -10 -2 28 -3 -6 -8 -13 -14 -4 -15 -9 -7 -1 -18 -17
right_child=1 2 7 4 8 12 9 10 15 14 -12 21 22 24 -16 29 17 -19 -20 -21 -22 -23 -24 -25 -26 -27 -28 -29 -30 -31
leaf_value=-60.918745804261142 -59.74927975125221 328.13901634494755 906.21676628388559 -60.013668585736973 -38.565698305992754 598.53715948807564 -477.60905151367189 1393.3830208333334 139.54697815866183 -223.35456257931475 1928.970330810547 1154.2731820913461 743.90030852461291 462.21887229848136 -130.30516991135397 220.51170643494194 -33.179869015658745 83.654167033186781 452.59117323477062 38.132618252204097 -324.85249614834049 1384.0231613685346 885.45531364889712 1084.4114658453525 595.3337464347718 1622.9963169642858 716.61858383861943 -86.557153016838456 -0.87208913466751248 303.54014853200607
leaf_weight=1782 1241 274 83 5795 569 152 84 30 462 591 32 65 113 107 467 226 1543 164 158 462 161 29 68 39 63 21 67 2152 722 93
leaf_count=1782 1241 274 83 5795 569 152 84 30 462 591 32 65 113 107 467 226 1543 164 158 462 161 29 68 39 63 21 67 2152 722 93
internal_value=-4.06763e-07 158.856 693.259 -61.4819 -27.5497 530.585 -110.77 1238.41 76.2743 -218.937 1657.97 1077.19 708.157 412.596 -182.283 182.504 -30.5874 -15.6883 373.656 -4.19652 -377.226 1225.15 797.081 963.181 511.55 1487.93 634.663 -74.9436 -22.8813 244.717
internal_weight=17815 4971 1301 12844 7607 1002 5237 299 1812 1303 83 216 400 602 1058 781 3670 2429 432 1031 245 94 181 122 170 51 219 3934 2265 319
internal_count=17815 4971 1301 12844 7607 1002 5237 299 1812 1303 83 216 400 602 1058 781 3670 2429 432 1031 245 94 181 122 170 51 219 3934 2265 319
is_linear=0
shrinkage=0.1


Tree=15
num_leaves=31
num_cat=0
split_feature=9 16 9 9 9 18 18 9 9 9 9 9 3 9 9 9 18 9 9 3 9 9 3 9 3 18 3 8 18 18
split_gain=1.40936e+10 4.0764e+10 9.37784e+09 2.04403e+09 1.74669e+09 2.26669e+09 1.5165e+09 1.30778e+09 1.0867e+09 7.33621e+08 3.98216e+08 3.1425e+08 1.92869e+08 1.92707e+08 1.90348e+08 1.83805e+08 1.44486e+08 1.23659e+08 1.23581e+08 1.15189e+08 1.11439e+08 7.58406e+07 6.84289e+07 6.54741e+07 6.4865e+07 6.44342e+07 6.11145e+07 4.78301e+07 4.62109e+07 4.14626e+07
threshold=45.500000000000007 26200.450000000004 114.50000000000001 183.50000000000003 1.5000000000000002 327.50000000000006 335.50000000000006 73.500000000000014 21.500000000000004 -20.499999999999996 235.50000000000003 148.50000000000003 148.50000000000003 -39.499999999999993 -9.4999999999999982 93.500000000000014 18.500000000000004 10.500000000000002 35.500000000000007 110.50000000000001 150.50000000000003 152.50000000000003 82.500000000000014 60.500000000000007 148.50000000000003 355.50000000000006 122.50000000000001 82.250000000000014 9.5000000000000018 3.5000000000000004
decision_type=2 2 2 2 2 2 2 2 2 2 2 2 2 2 2 2 2 2 2 2 2 2 2 2 2 2 2 2 2 2
left_child=4 16 7 11 6 -6 28 12 17 13 22 19 23 -8 -11 24 21 -7 -10 -4 -18 29 -5 -3 -9 -17 -13 -14 -1 -2
right_child=1 2 3 10 5 8 9 15 18 14 -12 26 27 -15 -16 25 20 -19 -20 -21 -22 -23 -24 -25 -26 -27 -28 -29 -30 -31
leaf_value=-55.902255003362058 -77.29053268432618 295.68487843026361 724.65249107623924 1183.5726302083333 -53.678765557551316 -16.051484666789488 -414.59884573129511 502.14159832690143 144.65750423103438 -174.28130289062503 1704.0842850534541 1003.5618695746527 426.62457599250638 -257.60442320808534 -86.338529277669977 638.37792246643937 -9.3482008496325406 55.789729484092049 233.55404668130166 896.28939778645838 87.752232019225175 -5.4799962130371407 1397.1593750000002 382.1160594940186 622.72823066086073 783.49580954527255 1181.201571116728 564.27740191291366 -76.803409500655604 -42.041172242318765
leaf_weight=2087 420 278 58 30 5478 602 104 166 442 625 38 45 98 315 406 142 1002 398 242 120 134 490 30 128 61 39 34 34 2145 1624
leaf_count=2087 420 278 58 30 5478 602 104 166 442 625 38 45 98 315 406 142 1002 398 242 120 134 490 30 128 61 39 34 34 2145 1624
internal_value=-1.7608e-07 142.971 623.933 1062.21 -55.3337 -22.4871 -96.7361 459.465 78.9786 -184.995 1450.79 914.03 357.074 -296.572 -139.65 594.48 -27.5287 12.5413 176.109 840.363 2.10555 -40.8138 1290.37 322.934 534.546 669.646 1080.01 462.081 -66.4961 -49.2842
internal_weight=17815 4971 1301 355 12844 7162 5682 946 1684 1450 98 257 538 419 1031 408 3670 1000 684 178 1136 2534 60 406 227 181 79 132 4232 2044
internal_count=17815 4971 1301 355 12844 7162 5682 946 1684 1450 98 257 538 419 1031 408 3670 1000 684 178 1136 2534 60 406 227 181 79 132 4232 2044
is_linear=0
shrinkage=0.1


Tree=16
num_leaves=31
num_cat=0
split_feature=9 16 9 9 18 9 9 9 18 9 9 9 16 9 9 9 9 9 18 8 9 18 9 9 3 3 18 18 9 9
split_gain=1.14465e+10 3.22851e+10 5.05695e+09 2.35048e+09 5.06646e+09 9.67722e+08 9.21383e+08 7.47623e+08 6.41393e+08 1.02312e+09 3.13956e+08 1.57434e+08 1.37125e+08 2.3478e+08 1.36307e+08 1.24987e+08 1.23131e+08 1.20809e+08 1.09883e+08 9.29223e+07 7.70036e+07 7.54968e+07 7.30208e+07 7.01855e+07 6.17969e+07 6.0704e+07 5.92945e+07 5.77808e+07 6.21633e+07 5.31585e+07
threshold=64.500000000000014 26202.650000000005 143.50000000000003 12.500000000000002 323.50000000000006 36.500000000000007 97.500000000000014 235.50000000000003 351.50000000000006 -7.4999999999999991 -26.499999999999996 175.50000000000003 26310.550000000003 -16.499999999999996 49.500000000000007 24.500000000000004 114.50000000000001 81.500000000000014 19.500000000000004 49.750000000000007 239.50000000000003 365.50000000000006 2.5000000000000004 -16.499999999999996 116.50000000000001 89.500000000000014 6.5000000000000009 3.5000000000000004 210.50000000000003 -43.499999999999993
decision_type=2 2 2 2 2 2 2 2 2 2 2 2 2 2 2 2 2 2 2 2 2 2 2 2 2 2 2 2 2 2
left_child=3 18 6 8 26 15 17 11 12 10 -10 -4 -1 29 -7 -6 -8 25 27 -18 -20 -16 -11 -12 -13 -3 -5 -2 -29 -14
right_child=1 2 7 4 5 14 16 -9 9 22 23 24 13 -15 21 -17 19 -19 20 -21 -22 -23 -24 -25 -26 -27 -28 28 -30 -31
leaf_value=-56.001943645856137 -67.25140888876544 310.81340230305995 938.63612968249208 -62.864664057517544 65.50685796118114 224.45328628077652 618.29730711054981 1533.6758801912008 -331.73836685775166 -64.37413533122394 -208.11524888738393 1080.8815199908088 -361.1025390625 -57.766136678088174 296.54199110896712 145.88608457559874 648.33038167317716 520.06143293011917 9.2892484964732134 804.33290597098221 155.85839426141035 437.28669976128481 6.0501291243292448 -144.47922169486469 1278.3283033288044 437.23350642277649 -36.555715459336227 -28.490861573733213 34.732298325674876 -187.11739451090497
leaf_weight=6973 334 48 78 1225 431 330 133 38 154 313 323 51 20 281 249 351 60 181 632 105 38 45 278 374 23 182 2849 1397 175 144
leaf_count=6973 334 48 78 1225 431 330 133 38 154 313 323 51 20 281 249 351 60 181 632 105 38 45 278 374 23 182 2849 1397 175 144
internal_value=2.76253e-07 162.832 678.793 -39.459 12.02 175.694 556.015 1136.95 -71.2993 -132.324 -202.52 1037.76 -59.4366 -113.257 268.568 101.585 689.894 458.946 -17.233 747.605 17.6021 318.085 -31.2473 -173.969 1142.25 410.85 -44.4665 -29.4783 -21.4527 -208.335
internal_weight=17815 3475 899 14340 5480 1406 709 190 8860 1442 851 152 7418 445 624 782 298 411 2576 165 670 294 591 697 74 230 4074 1906 1572 164
internal_count=17815 3475 899 14340 5480 1406 709 190 8860 1442 851 152 7418 445 624 782 298 411 2576 165 670 294 591 697 74 230 4074 1906 1572 164
is_linear=0
shrinkage=0.1


Tree=17
num_leaves=31
num_cat=0
split_feature=9 16 9 9 18 9 9 9 18 9 9 9 16 0 9 3 21 9 9 3 18 8 9 9 9 18 9 18 3 9
split_gain=9.27168e+09 2.61509e+10 4.09613e+09 1.90389e+09 4.10384e+09 7.85093e+08 7.47625e+08 6.07425e+08 5.19715e+08 7.97195e+08 2.28971e+08 1.31954e+08 2.45902e+08 1.21544e+08 1.20333e+08 1.1647e+08 1.1456e+08 1.11515e+08 9.16606e+07 9.08911e+07 9.07192e+07 7.5267e+07 6.75891e+07 6.13904e+07 5.97446e+07 4.97437e+07 5.02746e+07 4.95459e+07 4.90378e+07 4.7909e+07
threshold=64.500000000000014 26202.650000000005 143.50000000000003 12.500000000000002 323.50000000000006 37.500000000000007 95.500000000000014 226.50000000000003 352.50000000000006 -11.499999999999998 -29.499999999999996 -20.499999999999996 26263.650000000005 41.000000000000007 114.50000000000001 158.50000000000003 61.959662196589498 24.500000000000004 1.5000000000000002 149.50000000000003 20.500000000000004 49.750000000000007 48.500000000000007 73.500000000000014 239.50000000000003 3.5000000000000004 216.50000000000003 14.500000000000002 150.50000000000003 -19.499999999999996
decision_type=2 2 2 2 2 2 2 2 2 2 2 2 2 2 2 2 2 2 2 2 2 2 2 2 2 2 2 2 2 2
left_child=3 20 6 8 27 17 19 13 11 10 -10 12 -1 -4 28 22 -9 -6 -11 23 25 -16 -7 -3 -22 -2 -27 -5 -8 -12
right_child=1 2 7 4 5 15 14 16 9 18 29 -13 -14 -15 21 -17 -18 -19 -20 -21 24 -23 -24 -25 -26 26 -28 -29 -30 -31
leaf_value=-67.984677324045023 -60.526267821488979 311.34527240953952 806.10412785456731 -50.097777111294036 58.956172013780638 184.85607454978813 514.08645996093753 1527.235914248512 -325.69175015536223 -80.057556764284769 -206.50246648919094 -48.113725707356252 -209.83473714192712 995.58769682264835 583.49734008789062 334.72926846208247 1192.8225830078125 133.52898878580729 -3.2294255241442151 483.95538552024146 11.992506380140549 723.89961449032739 259.61778918850808 410.42508444864245 147.03609409877234 -23.920628112087673 34.495914578145268 -27.952393660482176 637.0432277513587 -148.16218647448545
leaf_weight=1068 334 95 52 2220 431 236 110 21 110 288 219 6306 138 97 60 116 20 375 337 110 512 105 248 183 35 1532 163 1854 46 394
leaf_count=1068 334 95 52 2220 431 236 110 21 110 288 219 6306 138 97 60 116 20 375 337 110 512 105 248 183 35 1532 163 1854 46 394
internal_value=1.56668e-07 146.549 610.914 -35.5131 10.818 158.125 500.414 1023.25 -64.1694 -121.343 -192.844 -53.9097 -84.2163 929.459 613.311 244.733 1364.11 93.652 -38.6318 407.012 -15.5097 672.844 223.164 376.567 20.6333 -25.2535 -18.303 -40.0198 550.343 -169.005
internal_weight=17815 3475 899 14340 5480 1406 709 190 8860 1348 723 7512 1206 149 321 600 41 806 625 388 2576 165 484 278 547 2029 1695 4074 156 613
internal_count=17815 3475 899 14340 5480 1406 709 190 8860 1348 723 7512 1206 149 321 600 41 806 625 388 2576 165 484 278 547 2029 1695 4074 156 613
is_linear=0
shrinkage=0.1


Tree=18
num_leaves=31
num_cat=0
split_feature=9 16 9 9 18 9 9 16 9 9 9 18 9 9 18 0 9 18 3 18 9 9 8 3 3 18 9 3 3 8
split_gain=7.51006e+09 2.11822e+10 3.31944e+09 1.55094e+09 3.40898e+09 6.63618e+08 4.72127e+08 7.7264e+08 4.5425e+08 4.37172e+08 1.50539e+08 2.91389e+08 1.44211e+08 1.37365e+08 1.19397e+08 9.51465e+07 8.65046e+07 8.18085e+07 7.88888e+07 7.8493e+07 7.36449e+07 6.52585e+07 5.75042e+07 5.12903e+07 4.32138e+07 4.27165e+07 3.47015e+07 3.33318e+07 3.23678e+07 2.95726e+07
threshold=64.500000000000014 26202.650000000005 148.50000000000003 18.500000000000004 323.50000000000006 106.50000000000001 -19.499999999999996 26200.450000000004 235.50000000000003 41.500000000000007 -1.4999999999999998 331.50000000000006 84.500000000000014 -42.499999999999993 328.50000000000006 45.000000000000007 4.5000000000000009 359.50000000000006 137.50000000000003 11.500000000000002 189.50000000000003 29.500000000000004 43.750000000000007 87.500000000000014 82.500000000000014 5.5000000000000009 -14.499999999999998 76.500000000000014 195.50000000000003 46.250000000000007
decision_type=2 2 2 2 2 2 2 2 2 2 2 2 2 2 2 2 2 2 2 2 2 2 2 2 2 2 2 2 2 2
left_child=3 19 5 6 25 12 7 -1 15 21 11 -8 23 -9 -12 -4 -16 24 27 -2 -21 -6 -14 -3 -11 -5 -13 -7 -19 -23
right_child=1 2 8 4 9 18 10 13 -10 17 14 26 22 -15 16 -17 -18 28 -20 20 -22 29 -24 -25 -26 -27 -28 -29 -30 -31
leaf_value=-59.747431393565961 -36.456917306993255 250.18629602502892 796.90808209358374 -52.721762995359285 81.817446835835781 453.66009695870537 -44.420308840075656 -321.95000651966444 1244.3053518194902 150.98595740908669 -41.910978946443556 -140.21977110847595 355.20736567659196 -183.91945066523732 -33.708200282481179 973.72897243923626 21.79019889661285 286.78104537160777 677.45506888724663 -7.6271842743344926 63.08735640674103 92.042168040556078 474.34222738576494 359.67611569895331 231.98807293000769 -27.791779714303161 -97.061550410170312 573.54860713252322 427.03851725260421 160.25244823637465
leaf_weight=1213 968 54 94 952 360 28 2514 88 38 84 3622 315 53 399 536 45 590 76 74 1444 164 85 172 206 305 2472 456 135 21 252
leaf_count=1213 968 54 94 952 360 28 2514 88 38 84 3622 315 53 399 536 45 590 76 74 1444 164 85 172 206 305 2472 456 135 21 252
internal_value=4.83882e-08 131.894 549.822 -31.9618 15.8393 454.681 -54.5879 -102.464 937.914 162.184 -44.456 -60.9138 387.662 -208.861 -33.0693 854.152 -4.62822 234.984 591.828 -13.9587 -0.415005 111.422 446.279 336.936 214.497 -34.7232 -114.694 552.954 317.146 143.048
internal_weight=17815 3475 899 14340 4607 722 9733 1700 177 1183 8033 3285 485 487 4748 139 1126 486 237 2576 1608 697 225 260 389 3424 771 163 97 337
internal_count=17815 3475 899 14340 4607 722 9733 1700 177 1183 8033 3285 485 487 4748 139 1126 486 237 2576 1608 697 225 260 389 3424 771 163 97 337
is_linear=0
shrinkage=0.1


Tree=19
num_leaves=31
num_cat=0
split_feature=9 16 9 9 18 9 9 9 18 9 9 21 9 9 8 9 9 18 9 9 8 3 8 9 8 9 3 9 18 9
split_gain=6.09574e+09 1.75658e+10 3.22076e+09 1.03195e+09 1.93339e+09 6.17812e+08 5.06247e+08 4.8103e+08 4.64962e+08 5.70659e+08 1.68901e+08 1.30274e+08 1.18387e+08 8.66301e+07 8.5049e+07 8.41706e+07 7.16677e+07 7.13345e+07 5.46802e+07 4.62975e+07 4.54687e+07 4.4978e+07 4.35583e+07 3.90126e+07 3.78513e+07 3.72127e+07 3.43856e+07 3.41397e+07 3.21992e+07 3.02141e+07
threshold=55.500000000000007 26201.650000000005 133.50000000000003 6.5000000000000009 324.50000000000006 89.500000000000014 213.50000000000003 29.500000000000004 336.50000000000006 -13.499999999999998 -38.499999999999993 67.115571860224719 166.50000000000003 -1.4999999999999998 54.250000000000007 111.50000000000001 42.500000000000007 18.500000000000004 131.50000000000003 18.500000000000004 61.250000000000007 87.500000000000014 44.250000000000007 -22.499999999999996 46.750000000000007 152.50000000000003 134.50000000000003 73.500000000000014 17.500000000000004 -27.499999999999996
decision_type=2 2 2 2 2 2 2 2 2 2 2 2 2 2 2 2 2 2 2 2 2 2 2 2 2 2 2 2 2 2
left_child=3 17 5 8 28 14 12 19 29 10 -10 -8 24 -11 27 22 -9 25 -19 -6 -18 -14 -7 -12 -4 -2 -17 -3 -5 -1
right_child=1 2 6 4 7 15 11 16 9 13 23 -13 21 -15 -16 26 20 18 -20 -21 -22 -23 -24 -25 -26 -27 -28 -29 -30 -31
leaf_value=-66.146401504205201 -32.54306445243035 229.0095688133909 536.61522914341526 -39.556580114877356 25.801093911763395 335.94159815588665 1227.8102069561298 130.55650994618733 -278.14141241055785 -85.30922427498615 -178.33191435677668 908.098994140625 718.68125626001608 -24.499458180437955 341.98006379236631 493.34361617476856 172.61163064236112 -4.7503869977307094 53.510214248212804 73.635702364179835 258.46087474149817 864.66298403532608 449.30931381225582 -128.19047643680383 676.69863360005047 -1.046674789397084 598.21858465021307 302.79936918008207 -21.408729189523797 -40.231363747803584
leaf_weight=490 1600 171 28 2976 462 43 26 360 107 386 224 25 39 596 201 108 225 739 206 360 85 46 160 505 62 490 44 99 1456 5496
leaf_count=490 1600 171 28 2976 462 43 26 360 107 386 224 25 39 596 201 108 225 739 206 360 85 46 160 505 62 490 44 99 1456 5496
internal_value=-1.53444e-07 107.207 459.337 -31.9168 -0.448244 367.813 793.846 98.0135 -55.8045 -100.096 -160.818 1071.09 713.049 -48.4023 292.73 467.43 160.906 -14.8498 7.94981 46.7506 196.151 797.683 425.295 -143.597 633.117 -25.1587 523.702 256.066 -33.5947 -42.3527
internal_weight=17815 4087 1052 13728 5924 826 226 1492 7804 1818 836 51 175 982 471 355 670 3035 945 822 310 85 203 729 90 2090 152 270 4432 5986
internal_count=17815 4087 1052 13728 5924 826 226 1492 7804 1818 836 51 175 982 471 355 670 3035 945 822 310 85 203 729 90 2090 152 270 4432 5986
is_linear=0
shrinkage=0.1


Tree=20
num_leaves=31
num_cat=0
split_feature=9 16 9 9 18 9 9 16 9 9 9 18 18 9 9 9 8 18 8 8 8 3 8 18 9 9 18 8 9 9
split_gain=4.94996e+09 1.37607e+10 2.00685e+09 1.11589e+09 2.50463e+09 3.55771e+08 3.25792e+08 5.09457e+08 2.99816e+08 2.96187e+08 1.05835e+08 1.90688e+08 9.8412e+07 9.51911e+07 9.14252e+07 7.01805e+07 6.88023e+07 5.87288e+07 5.85841e+07 5.83469e+07 5.07932e+07 4.88511e+07 4.05799e+07 3.72353e+07 3.69543e+07 3.45127e+07 3.41454e+07 3.30243e+07 3.09676e+07 2.8221e+07
threshold=68.500000000000014 26202.650000000005 140.50000000000003 20.500000000000004 322.50000000000006 235.50000000000003 -19.499999999999996 26200.450000000004 42.500000000000007 99.500000000000014 -1.4999999999999998 331.50000000000006 331.50000000000006 172.50000000000003 -43.499999999999993 5.5000000000000009 46.250000000000007 21.500000000000004 60.250000000000007 55.750000000000007 83.250000000000014 116.50000000000001 46.750000000000007 2.5000000000000004 226.50000000000003 216.50000000000003 5.5000000000000009 44.750000000000007 118.50000000000001 29.500000000000004
decision_type=2 2 2 2 2 2 2 2 2 2 2 2 2 2 2 2 2 2 2 2 2 2 2 2 2 2 2 2 2 2
left_child=3 17 9 6 26 13 7 -1 22 19 11 -8 -12 27 -9 -14 -10 23 28 -3 -18 -15 -6 -2 -19 -25 -5 -4 -11 -24
right_child=1 2 5 4 8 -7 10 14 16 18 12 -13 15 21 -16 -17 20 24 -20 -21 -22 -23 29 25 -26 -27 -28 -29 -30 -31
leaf_value=-48.709106274232923 -55.056437274865942 280.01954985683409 499.32096191406254 -43.896111122560711 54.789052656758045 1012.2380178351152 -35.955141724531103 -264.69543616885232 135.80804912510203 373.27683744884672 -33.954299609330882 -92.803639699636577 -24.766251591447983 694.21334490094875 -150.01078633575818 24.125317631362702 210.46552314348119 16.221329421188987 511.11402680019165 360.94378172273093 374.05651916503911 857.97058195891213 83.750249289562362 -16.80282348211686 128.3968406677246 29.509944445094586 -21.378225898321389 637.93601740056829 459.66639374523629 132.44550091809842
leaf_weight=1213 228 206 25 924 173 38 2514 84 134 84 3841 771 601 56 403 574 372 357 106 157 20 27 211 1592 32 179 2483 55 82 273
leaf_count=1213 228 206 25 924 173 38 2514 84 134 84 3841 771 601 56 403 574 372 357 106 157 20 27 211 1592 32 179 2483 55 82 273
internal_value=4.9636e-08 112.138 461.308 -24.7778 16.0431 736.695 -43.5127 -83.3958 141.403 374.139 -35.3449 -49.2977 -26.2071 672.458 -169.792 -0.8822 197.667 -10.1009 453.037 315.02 218.812 747.484 96.3583 -17.0189 25.4491 -12.1219 -27.4852 594.619 415.951 111.217
internal_weight=17815 3224 836 14591 4590 201 10001 1700 1183 635 8301 3285 5016 163 487 1175 526 2388 272 363 392 83 657 1999 389 1771 3407 80 166 484
internal_count=17815 3224 836 14591 4590 201 10001 1700 1183 635 8301 3285 5016 163 487 1175 526 2388 272 363 392 83 657 1999 389 1771 3407 80 166 484
is_linear=0
shrinkage=0.1


Tree=21
num_leaves=31
num_cat=0
split_feature=9 16 9 9 18 9 18 9 9 9 3 9 3 3 8 3 8 18 9 9 9 9 9 18 9 8 8 9 16 18
split_gain=4.01156e+09 1.15565e+10 2.12224e+09 6.78662e+08 1.16505e+09 4.592e+08 4.17698e+08 3.82415e+08 3.81284e+08 2.48278e+08 1.48699e+08 9.59048e+07 6.85596e+07 6.54287e+07 5.79924e+07 5.68724e+07 5.64143e+07 5.39151e+07 5.43537e+07 4.34491e+07 4.13471e+07 3.7422e+07 3.73955e+07 3.25284e+07 2.8137e+07 2.6295e+07 2.61708e+07 2.56766e+07 2.41787e+07 2.38581e+07
threshold=55.500000000000007 26201.650000000005 131.50000000000003 2.5000000000000004 324.50000000000006 25.500000000000004 336.50000000000006 193.50000000000003 89.500000000000014 -15.499999999999998 130.50000000000003 -29.499999999999996 152.50000000000003 125.50000000000001 62.250000000000007 75.500000000000014 35.250000000000007 7.5000000000000009 170.50000000000003 114.50000000000001 13.500000000000002 42.500000000000007 -6.4999999999999991 10.500000000000002 39.500000000000007 36.750000000000007 36.250000000000007 -15.499999999999998 26197.250000000004 358.50000000000006
decision_type=2 2 2 2 2 2 2 2 2 2 2 2 2 2 2 2 2 2 2 2 2 2 2 2 2 2 2 2 2 2
left_child=3 17 8 6 -5 20 23 12 14 11 15 -8 26 24 25 -9 -10 -2 28 29 -6 -15 -11 -1 -7 -3 -4 -25 -19 -18
right_child=1 2 7 4 5 13 9 10 16 22 -12 -13 -14 21 -16 -17 19 18 -20 -21 -22 -23 -24 27 -26 -27 -28 -29 -30 -31
leaf_value=-27.441578862497824 -36.307171071991647 159.06005506918464 416.5722873263889 -27.875560947155147 3.1429129659606261 70.428152047771306 -210.20740804036461 627.89676555765095 265.89725550209607 -79.783803740791654 1037.9490420386905 -119.99998022460939 653.30595464939029 126.97584696361479 287.32246377268143 819.84785008285985 347.20544041763122 -9.9529728258286081 31.987088490502778 444.39647639812813 44.109105308186756 193.31241455078126 -37.356822252159212 -55.599037737667736 121.23590754495788 228.17436174665178 529.11946022727273 -34.428405438337819 -120.46176958084106 435.24619333367605
leaf_weight=2465 703 71 27 5610 598 219 150 29 41 414 21 550 41 212 155 33 162 1968 344 101 419 142 417 1041 217 245 88 1274 20 38
leaf_count=2465 703 71 27 5610 598 219 150 29 41 414 21 550 41 212 155 33 162 1968 344 101 419 142 417 1041 217 245 88 1274 20 38
internal_value=-7.50052e-08 86.9691 372.585 -25.8918 -5.38217 64.4507 -49.9958 634.546 295.576 -95.4536 807.963 -139.33 542.279 121.647 237.221 730.064 375.943 -12.032 -4.71403 390.932 20.0208 153.585 -58.4937 -35.436 95.7155 212.646 502.695 -43.9483 -11.0647 363.933
internal_weight=17815 4087 1052 13728 7417 1807 6311 239 813 1531 83 700 156 790 471 62 342 3035 2332 301 1017 354 831 4780 436 316 115 2315 1988 200
internal_count=17815 4087 1052 13728 7417 1807 6311 239 813 1531 83 700 156 790 471 62 342 3035 2332 301 1017 354 831 4780 436 316 115 2315 1988 200
is_linear=0
shrinkage=0.1


Tree=22
num_leaves=31
num_cat=0
split_feature=9 16 9 9 18 9 9 16 9 9 9 18 3 8 18 9 18 9 9 3 9 3 18 9 3 0 3 18 9 8
split_gain=3.27141e+09 9.03694e+09 1.3154e+09 7.44901e+08 1.66619e+09 2.54535e+08 2.17772e+08 2.97021e+08 2.02344e+08 1.9833e+08 8.79995e+07 1.82144e+08 8.58126e+07 5.30045e+07 5.23191e+07 6.45953e+07 4.59861e+07 4.48027e+07 4.38235e+07 4.35366e+07 3.71059e+07 3.563e+07 3.02395e+07 2.73046e+07 2.48932e+07 2.46263e+07 2.2285e+07 2.13866e+07 2.06682e+07 2.05305e+07
threshold=69.500000000000014 26202.650000000005 155.50000000000003 20.500000000000004 322.50000000000006 106.50000000000001 -22.499999999999996 26210.150000000005 48.500000000000007 254.50000000000003 -6.4999999999999991 331.50000000000006 141.50000000000003 50.250000000000007 331.50000000000006 3.5000000000000004 13.500000000000002 33.500000000000007 -44.499999999999993 137.50000000000003 251.50000000000003 173.50000000000003 17.500000000000004 197.50000000000003 134.50000000000003 29.000000000000004 73.500000000000014 11.500000000000002 112.50000000000001 58.750000000000007
decision_type=2 2 2 2 2 2 2 2 2 2 2 2 2 2 2 2 2 2 2 2 2 2 2 2 2 2 2 2 2 2
left_child=3 16 5 6 22 13 7 27 17 12 11 -8 23 -3 -12 -16 -2 29 -9 26 28 -10 -5 -4 -19 -15 -7 -1 -18 -6
right_child=1 2 9 4 8 19 10 18 21 -11 14 -13 -14 25 15 -17 20 24 -20 -21 -22 -23 -24 -25 -26 -27 -28 -29 -30 -31
leaf_value=-28.64856745689703 -22.701527234430976 222.50169248638733 502.41087134576611 -28.771954342883568 50.050943598953197 276.29799957275389 -29.702324876267262 -219.69240814208985 161.0340997666936 906.75329802139959 -27.620522521652948 -84.26650573768427 729.57754498106067 251.82285781133743 -30.11490167695996 15.01045302029342 -9.5836494526424367 92.743382840196631 -134.97803413331971 455.20487354133707 92.463999127327128 244.24448882556354 -8.8420433695894562 607.59463128810978 147.15654508150541 318.54506007065009 379.98757211785573 -61.163603599077902 16.812053613821668 96.985538623951101
leaf_weight=442 1103 165 62 2300 301 24 2559 80 329 23 4194 804 33 84 561 730 682 238 258 79 47 61 1138 41 130 162 152 373 525 135
leaf_count=442 1103 165 62 2300 301 24 2559 80 329 23 4194 804 33 84 561 730 682 238 258 79 47 61 1138 41 130 162 152 373 525 135
internal_value=8.01238e-08 91.8948 376.743 -19.9829 13.1699 315.046 -35.3377 -76.2155 114.942 635.171 -30.0108 -42.7471 589.242 266.351 -22.2019 -4.59863 -7.8081 86.2707 -155.029 393.531 5.29194 174.049 -22.175 544.28 111.965 295.762 365.848 -43.5297 1.8975 64.5834
internal_weight=17815 3182 825 14633 4632 666 10001 1153 1194 159 8848 3363 136 411 5485 1291 2357 804 338 255 1254 390 3438 103 368 246 176 815 1207 436
internal_count=17815 3182 825 14633 4632 666 10001 1153 1194 159 8848 3363 136 411 5485 1291 2357 804 338 255 1254 390 3438 103 368 246 176 815 1207 436
is_linear=0
shrinkage=0.1


Tree=23
num_leaves=31
num_cat=0
split_feature=9 16 9 9 18 9 9 9 18 9 3 9 18 18 8 9 18 8 3 3 9 3 18 18 9 18 9 9 9 3
split_gain=2.65547e+09 7.17389e+09 9.35209e+08 6.75597e+08 1.59663e+09 2.02844e+08 1.85902e+08 1.80451e+08 2.82102e+08 1.36618e+08 7.35109e+07 5.6606e+07 8.41731e+07 8.08966e+07 5.15783e+07 4.29473e+07 4.28714e+07 3.7047e+07 3.65881e+07 3.63663e+07 3.37691e+07 2.66426e+07 2.63404e+07 2.63311e+07 2.53356e+07 2.52876e+07 2.23481e+07 1.93085e+07 1.73606e+07 1.67536e+07
threshold=75.500000000000014 26202.650000000005 166.50000000000003 21.500000000000004 317.50000000000006 49.500000000000007 118.50000000000001 -19.499999999999996 339.50000000000006 254.50000000000003 123.50000000000001 1.5000000000000002 331.50000000000006 328.50000000000006 56.250000000000007 -44.499999999999993 22.500000000000004 46.250000000000007 89.500000000000014 124.50000000000001 -7.4999999999999991 192.50000000000003 17.500000000000004 17.500000000000004 8.5000000000000018 1.5000000000000002 223.50000000000003 35.500000000000007 197.50000000000003 153.50000000000003
decision_type=2 2 2 2 2 2 2 2 2 2 2 2 2 2 2 2 2 2 2 2 2 2 2 2 2 2 2 2 2 2
left_child=3 16 6 7 23 19 14 8 22 10 -4 12 -9 -13 -3 -10 25 -8 -7 -6 -14 -20 -1 -5 -15 -2 -27 -21 -18 -19
right_child=1 2 9 4 5 18 17 11 15 -11 -12 13 20 24 -16 -17 28 29 21 27 -22 -23 -24 -25 -26 26 -28 -29 -30 -31
leaf_value=-27.515241591023337 -50.427735764075976 231.09242709177843 493.55400327211851 -26.062057736661259 61.43265871161455 110.67864413791233 318.36834820246293 -25.830501606103532 -197.72317276000979 816.07796299146571 666.6625854492188 -25.039896800756804 -73.551645862713414 -7.9027963148828109 302.25759576291455 -116.42331296005692 24.149655187852456 390.81211168791123 170.96144027241903 83.63476522222993 -35.214714991882161 267.97512876449093 -58.011551348517926 -7.9642678682902543 23.968246756170039 -10.916176062846695 25.599219764547147 130.5621601346173 102.49229865796639 468.65381047175481
leaf_weight=849 145 212 77 2380 437 99 59 2993 80 23 36 3445 626 524 196 346 198 95 326 197 363 31 425 1214 476 1545 188 158 33 39
leaf_count=849 145 212 77 2380 437 99 59 2993 80 23 36 3445 626 524 196 346 198 95 326 197 363 31 425 1214 476 1545 188 158 33 39
internal_value=-1.48725e-07 88.5435 357.118 -16.8344 13.8894 111.337 303.532 -31.5244 -61.2445 593.921 548.704 -25.5288 -34.1881 -17.7716 265.28 -131.691 -5.31104 384.396 164.469 80.7461 -59.4806 179.386 -37.6887 -19.9489 7.26782 -10.3114 -6.9549 104.521 35.3415 413.468
internal_weight=17815 2846 737 14969 4842 1248 601 10127 1700 136 113 8427 3982 4445 408 426 2109 193 456 792 989 357 1274 3594 1000 1878 1733 355 231 134
internal_count=17815 2846 737 14969 4842 1248 601 10127 1700 136 113 8427 3982 4445 408 426 2109 193 456 792 989 357 1274 3594 1000 1878 1733 355 231 134
is_linear=0
shrinkage=0.1


Tree=24
num_leaves=31
num_cat=0
split_feature=9 16 9 9 18 9 9 16 9 9 9 18 3 3 18 9 18 8 3 8 9 9 18 9 9 3 18 18 3 8
split_gain=2.15093e+09 5.81085e+09 7.62019e+08 5.47234e+08 1.29327e+09 1.646e+08 1.49645e+08 1.89082e+08 1.29193e+08 1.25638e+08 6.25861e+07 1.27855e+08 5.67717e+07 3.92729e+07 3.9043e+07 4.82141e+07 3.58833e+07 3.16772e+07 3.16053e+07 2.9618e+07 2.62491e+07 2.45163e+07 2.35789e+07 2.24782e+07 2.06025e+07 1.88294e+07 1.80008e+07 1.75498e+07 1.71191e+07 1.58193e+07
threshold=75.500000000000014 26202.650000000005 155.50000000000003 21.500000000000004 317.50000000000006 48.500000000000007 -23.499999999999996 26210.150000000005 254.50000000000003 111.50000000000001 -6.4999999999999991 331.50000000000006 141.50000000000003 150.50000000000003 339.50000000000006 7.5000000000000009 17.500000000000004 52.750000000000007 137.50000000000003 46.750000000000007 -47.499999999999993 35.500000000000007 4.5000000000000009 253.50000000000003 197.50000000000003 77.500000000000014 15.500000000000002 313.50000000000006 195.50000000000003 63.750000000000007
decision_type=2 2 2 2 2 2 2 2 2 2 2 2 2 2 2 2 2 2 2 2 2 2 2 2 2 2 2 2 2 2
left_child=3 16 9 6 22 19 7 -1 12 13 11 26 24 25 -12 -16 -2 -7 -11 -6 -9 -21 -5 -18 -4 -3 -8 -26 -19 -22
right_child=1 2 8 4 5 17 10 20 -10 18 14 -13 -14 -15 15 -17 23 28 -20 21 29 -23 -24 -25 27 -27 -28 -29 -30 -31
leaf_value=-36.721176012948199 -14.240594526116135 151.71754747178821 405.26795575541837 -32.574694961620168 39.351589063325754 123.02126253657468 -17.843555511276328 -201.06607204861112 734.4701702615489 303.62561653332835 -22.035263536484852 -68.873199964224796 592.35364139441288 283.10269124348957 -17.150236084155505 24.742176214622582 9.3700848978581792 165.24190541005507 387.54638981894846 65.489432729401202 -103.95813463348705 107.7136923980713 -13.466779537313636 93.841762195933953 429.59458251953129 223.02849886223464 -35.013715903397006 560.48366699218752 258.34609069824222 -160.63513535008286
leaf_weight=726 1382 45 62 844 208 263 1693 45 23 156 4436 837 33 105 737 438 694 193 63 322 194 240 2750 33 20 209 955 21 22 66
leaf_count=726 1382 45 62 844 208 263 1693 45 23 156 4436 837 33 105 737 438 694 193 63 322 194 240 2750 33 20 209 955 21 22 66
internal_value=-1.55763e-08 79.6891 321.406 -15.151 12.5005 100.203 -28.3719 -64.4785 515.278 268.074 -24.2794 -34.8046 478.208 231.66 -17.7421 -1.53417 -4.77994 146.297 327.767 71.5896 -130.55 83.5211 -17.954 13.2044 441.637 210.395 -24.036 496.635 174.769 -118.345
internal_weight=17815 2846 737 14969 4842 1248 10127 1031 159 578 9096 3485 136 359 5611 1175 2109 478 219 770 305 562 3594 727 103 254 2648 41 215 260
internal_count=17815 2846 737 14969 4842 1248 10127 1031 159 578 9096 3485 136 359 5611 1175 2109 478 219 770 305 562 3594 727 103 254 2648 41 215 260
is_linear=0
shrinkage=0.1


Tree=25
num_leaves=31
num_cat=0
split_feature=9 16 9 9 18 9 9 9 16 0 8 9 18 9 8 18 9 8 18 9 8 9 18 9 18 3 9 9 18 18
split_gain=1.74421e+09 4.64317e+09 5.8472e+08 4.65371e+08 1.12401e+09 1.60991e+08 1.21947e+08 1.21453e+08 1.4377e+08 8.38485e+07 8.6728e+07 5.38443e+07 1.17568e+08 3.9912e+07 3.17158e+07 3.14049e+07 3.01348e+07 2.96287e+07 2.64056e+07 4.05889e+07 2.32363e+07 2.31051e+07 2.0969e+07 1.94109e+07 1.81118e+07 1.77816e+07 1.99161e+07 1.65203e+07 1.59323e+07 1.39677e+07
threshold=79.500000000000014 26202.650000000005 170.50000000000003 20.500000000000004 317.50000000000006 49.500000000000007 122.50000000000001 -25.499999999999996 26210.150000000005 47.000000000000007 33.250000000000007 -7.4999999999999991 331.50000000000006 247.00000000000003 47.750000000000007 11.500000000000002 32.500000000000007 41.750000000000007 331.50000000000006 3.5000000000000004 37.750000000000007 147.50000000000003 20.500000000000004 93.500000000000014 357.50000000000006 193.50000000000003 61.500000000000007 -47.499999999999993 15.500000000000002 11.500000000000002
decision_type=2 2 2 2 2 2 2 2 2 2 2 2 2 2 2 2 2 2 2 2 2 2 2 2 2 2 2 2 2 2
left_child=3 15 6 7 22 16 14 8 29 -4 -11 12 28 -12 -3 -2 -6 -7 -13 -20 -8 -17 -5 -16 -18 26 -19 -10 -9 -1
right_child=1 2 9 4 5 17 20 11 27 10 13 18 -14 -15 23 21 24 25 19 -21 -22 -23 -24 -25 -26 -27 -28 -29 -30 -31
leaf_value=-21.068872165379091 -19.277017010990964 181.40077125369095 409.37874581473216 -20.08914531900108 44.032591580747066 86.728311281788109 241.50597681505928 -16.036474473653474 -180.9594665527344 406.60089692615333 553.25506347656244 -20.129325554581513 -64.11875598532616 748.441650390625 209.18319550960439 -2.2487280881752687 70.56906182729054 121.28538374192645 -23.445542523658883 11.824283672787557 339.6190165201823 28.126025183019138 -1.6418010074731915 263.62960994069169 118.55089862530049 226.47852444118928 167.96010764116301 -113.98944607438712 -31.926496409888706 -52.113273037685445
leaf_weight=317 774 127 63 3022 399 98 29 1737 45 21 20 4256 865 22 109 874 323 202 590 730 144 351 774 164 104 27 167 203 991 267
leaf_count=317 774 127 63 3022 399 98 29 1737 45 21 20 4256 865 22 109 874 323 202 590 730 144 351 774 164 104 27 167 203 991 267
internal_value=-1.75159e-08 74.0659 295.913 -13.2189 11.3126 90.7995 253.024 -25.7679 -62.3511 490.955 572.531 -22.4483 -31.9948 655.496 222.685 -3.50854 63.7919 135.958 -16.2969 -3.94026 323.172 6.45457 -16.3278 241.891 82.2555 148.141 142.409 -126.141 -21.8088 -35.2621
internal_weight=17815 2698 699 15117 5116 1320 573 10001 832 126 63 9169 3593 42 400 1999 826 494 5576 1320 173 1225 3796 273 427 396 369 248 2728 584
internal_count=17815 2698 699 15117 5116 1320 573 10001 832 126 63 9169 3593 42 400 1999 826 494 5576 1320 173 1225 3796 273 427 396 369 248 2728 584
is_linear=0
shrinkage=0.1


Tree=26
num_leaves=31
num_cat=0
split_feature=9 16 9 9 18 9 18 9 9 3 0 0 9 18 18 3 3 18 3 18 18 0 18 9 3 16 9 9 16 23
split_gain=1.41281e+09 3.76097e+09 4.75328e+08 3.7896e+08 9.27426e+08 1.09663e+08 2.04239e+08 9.99921e+07 9.6734e+07 8.84632e+07 6.01526e+07 5.82874e+07 3.55973e+07 2.86892e+07 2.71417e+07 2.534e+07 2.37497e+07 2.24467e+07 2.02677e+07 1.83249e+07 1.81718e+07 1.77551e+07 6.39996e+07 1.77381e+07 1.68187e+07 1.47065e+07 1.44269e+07 1.40678e+07 1.40355e+07 1.36816e+07
threshold=79.500000000000014 26202.650000000005 147.50000000000003 24.500000000000004 317.50000000000006 -14.499999999999998 339.50000000000006 202.50000000000003 50.500000000000007 75.500000000000014 33.000000000000007 57.000000000000007 -29.499999999999996 22.500000000000004 10.500000000000002 84.500000000000014 77.500000000000014 357.50000000000006 198.50000000000003 4.5000000000000009 2.5000000000000004 7.0000000000000009 342.50000000000006 210.50000000000003 123.50000000000001 26197.250000000004 13.500000000000002 130.50000000000003 26237.850000000002 37.900000000000006
decision_type=2 2 2 2 2 2 2 2 2 2 2 2 2 2 2 2 2 2 2 2 2 2 2 2 2 2 2 2 2 2
left_child=3 13 10 5 19 6 14 24 15 -9 -3 -11 -8 20 -1 -6 -12 -10 -14 -5 -2 -7 -23 25 -4 -22 -24 -18 -17 -19
right_child=1 2 7 4 8 21 12 9 17 11 16 -13 18 -15 -16 28 27 29 -20 -21 23 22 26 -25 -26 -27 -28 -29 -30 -31
leaf_value=-14.0009293204466 -36.053965050833568 184.04036394657982 323.20929532437714 -27.843438132149835 29.219895710913761 -20.645009045487178 -129.66317249351823 336.07087249755864 112.08204254998103 473.7935936337426 168.51113627115888 709.40299246651784 -70.113910302514441 31.261572473799745 -35.054755801430233 104.05579509881828 249.10594638558325 238.82844146728519 -170.19619867234005 -10.320349863532172 -6.5804264738980471 -17.593362185419824 3.1583668227706636 23.593828620725468 401.28134765625003 -90.908541656675794 30.656965132199804 307.20660000887784 66.517444223753159 147.10373486047504
leaf_weight=1267 196 262 74 770 152 3622 142 20 360 21 30 21 555 216 1185 130 172 20 21 2653 1360 2940 462 206 44 21 325 55 426 87
leaf_count=1267 196 262 74 770 152 3622 142 20 360 21 30 21 555 216 1185 130 172 20 21 2653 1360 2940 462 206 44 21 325 55 426 87
internal_value=-9.76944e-09 66.6593 266.322 -11.897 12.0509 -22.3649 -37.9112 406.347 88.7057 509.17 217.758 591.598 -84.8183 -3.15768 -24.1758 65.4027 252.132 124.035 -73.7627 -14.2621 -7.32737 -15.659 -10.8135 -3.77954 352.321 -7.86275 14.5142 263.183 75.2944 164.249
internal_weight=17815 2698 699 15117 4598 10519 3170 180 1175 62 519 42 718 1999 2452 708 257 467 576 3423 1783 7349 3727 1587 118 1381 787 227 556 107
internal_count=17815 2698 699 15117 4598 10519 3170 180 1175 62 519 42 718 1999 2452 708 257 467 576 3423 1783 7349 3727 1587 118 1381 787 227 556 107
is_linear=0
shrinkage=0.1


Tree=27
num_leaves=31
num_cat=0
split_feature=9 16 9 9 18 9 9 18 9 9 3 0 18 18 18 8 9 9 18 3 16 9 9 18 9 9 8 18 3 16
split_gain=1.14607e+09 3.27551e+09 5.34986e+08 2.23366e+08 4.56437e+08 1.25546e+08 1.12798e+08 9.76962e+07 9.73263e+07 7.719e+07 6.2695e+07 6.22071e+07 3.01818e+07 2.59811e+07 2.56392e+07 2.49336e+07 2.23081e+07 2.16664e+07 2.31627e+07 2.13174e+07 2.08483e+07 1.85787e+07 1.67947e+07 1.62615e+07 1.75998e+07 1.55528e+07 1.3298e+07 1.27782e+07 1.03637e+07 9.98471e+06
threshold=61.500000000000007 26202.650000000005 131.50000000000003 7.5000000000000009 335.50000000000006 193.50000000000003 35.500000000000007 353.50000000000006 -15.499999999999998 92.500000000000014 75.500000000000014 57.000000000000007 21.500000000000004 370.50000000000006 21.500000000000004 44.750000000000007 -45.499999999999993 -27.499999999999996 18.500000000000004 84.500000000000014 26329.950000000004 -2.4999999999999996 24.500000000000004 1.5000000000000002 140.50000000000003 142.50000000000003 73.250000000000014 370.50000000000006 151.50000000000003 26244.050000000003
decision_type=2 2 2 2 2 2 2 2 2 2 2 2 2 2 2 2 2 2 2 2 2 2 2 2 2 2 2 2 2 2
left_child=3 14 9 7 12 15 22 17 16 19 -7 -12 -5 -8 23 -4 -9 18 -1 -3 26 -10 29 -2 -25 -16 -11 -18 -21 -6
right_child=1 2 5 4 6 10 13 8 21 20 11 -13 -14 -15 25 -17 27 -19 -20 28 -22 -23 -24 24 -26 -27 -28 -29 -30 -31
leaf_value=-24.833705556400453 -38.191580711527074 91.117739211456694 229.78580639648442 -16.508399841002174 42.102808761596684 321.62821123846652 85.621142980344132 -149.81365418726085 -43.137905396044779 203.53832593445384 418.29669559363168 638.46269763764894 3.4633413682243486 188.26739977323092 6.4338078254542941 315.45349662348912 -65.866891645951711 -17.689351011556262 -69.462822746802246 136.5299145805545 135.26610203793174 -10.030096238338629 51.098151394858291 -13.336887211786186 7.133227216023541 51.668606789906825 259.81715486966647 -102.63696225484212 175.79712023925782 11.926691084006652
leaf_weight=383 188 79 50 3932 153 29 478 49 341 218 33 21 937 26 365 106 275 6305 167 205 38 337 268 1464 589 96 52 144 100 387
leaf_count=383 188 79 50 3932 153 29 478 49 341 218 33 21 937 26 365 106 275 6305 167 205 38 337 268 1464 589 96 52 144 100 387
internal_value=-4.79497e-09 50.1127 211.874 -12.8374 1.44113 340.862 53.7908 -23.8679 -50.8937 167.325 440.226 503.917 -12.665 90.9164 -5.62369 287.996 -85.9701 -19.3498 -38.3847 137.413 204.617 -26.6817 30.6332 -10.0418 -7.46407 15.8536 214.377 -78.5039 149.404 20.4766
internal_weight=17815 3633 931 14182 6181 239 1312 8001 1146 692 83 54 4869 504 2702 156 468 6855 550 384 308 678 808 2241 2053 461 270 419 305 540
internal_count=17815 3633 931 14182 6181 239 1312 8001 1146 692 83 54 4869 504 2702 156 468 6855 550 384 308 678 808 2241 2053 461 270 419 305 540
is_linear=0
shrinkage=0.1


Tree=28
num_leaves=31
num_cat=0
split_feature=9 16 9 9 18 9 9 18 9 3 9 9 18 8 18 8 18 8 3 9 15 9 18 3 9 18 3 16 9 9
split_gain=9.33453e+08 2.43126e+09 2.97699e+08 2.65044e+08 6.65493e+08 7.56014e+07 7.39107e+07 1.39645e+08 5.44113e+07 4.84509e+07 2.90368e+07 2.14068e+07 2.11394e+07 2.04106e+07 1.91984e+07 1.89111e+07 1.8099e+07 1.71361e+07 1.70824e+07 1.64817e+07 1.54307e+07 1.47679e+07 1.43243e+07 1.20833e+07 1.20672e+07 4.58008e+07 1.15873e+07 1.14354e+07 1.07223e+07 1.00256e+07
threshold=83.500000000000014 26202.650000000005 170.50000000000003 24.500000000000004 322.50000000000006 49.500000000000007 -14.499999999999998 331.50000000000006 118.50000000000001 164.50000000000003 -26.499999999999996 223.50000000000003 11.500000000000002 37.750000000000007 327.50000000000006 48.250000000000007 7.5000000000000009 61.250000000000007 198.50000000000003 251.50000000000003 -46.591665264999996 61.500000000000007 3.5000000000000004 162.50000000000003 2.5000000000000004 335.50000000000006 153.50000000000003 26201.650000000005 13.500000000000002 -48.499999999999993
decision_type=2 2 2 2 2 2 2 2 2 2 2 2 2 2 2 2 2 2 2 2 2 2 2 2 2 2 2 2 2 2
left_child=3 12 8 6 22 17 7 16 14 11 29 -4 -2 -10 -3 -7 -1 -6 -12 -14 21 -17 -5 -16 27 -26 -15 -8 -27 -9
right_child=1 2 9 4 5 15 24 10 13 -11 18 -13 19 26 23 20 -18 -19 -20 -21 -22 -23 -24 -25 25 28 -28 -29 -30 -31
leaf_value=-8.0846394014733001 -14.889208687568198 101.72709953840389 303.25966596211475 -24.546227861966702 41.81583412460094 76.012308234753817 -13.928731093396639 -151.04833374023437 162.79426929370777 503.16914672851567 -52.196958688796627 400.31300178296641 4.0298577839078016 229.30659001048022 162.69804987177122 89.038514159974611 -25.906197544537953 76.906653966659164 -144.04619867234004 57.881312993367516 191.27326513671878 131.42129141292216 -8.5118609540653107 213.27650797526044 -14.513577047348164 2.5606820121927001 289.61222945812136 -27.979956716034494 25.379045335241678 -89.575261833356777
leaf_weight=955 735 43 73 692 486 184 2375 31 37 20 566 33 1077 123 222 168 1413 195 21 60 25 161 2859 60 3332 545 43 766 331 184
leaf_count=955 735 43 73 692 486 184 2375 31 37 20 566 33 1077 123 222 168 1413 195 21 60 25 161 2859 60 3332 545 43 766 331 184
internal_value=1.04137e-08 56.3153 222.298 -9.30423 10.2481 73.9989 -18.1705 -30.9335 189.339 360.41 -66.9985 333.474 -1.67229 229.958 163.969 102.017 -18.7189 51.8639 -55.4829 6.87162 115.534 109.779 -11.6366 173.459 -12.6652 -9.16426 244.928 -17.3554 11.1827 -98.4388
internal_weight=17815 2526 654 15289 4770 1219 10519 3170 528 126 802 106 1872 203 325 538 2368 681 587 1137 354 329 3551 282 7349 4208 166 3141 876 215
internal_count=17815 2526 654 15289 4770 1219 10519 3170 528 126 802 106 1872 203 325 538 2368 681 587 1137 354 329 3551 282 7349 4208 166 3141 876 215
is_linear=0
shrinkage=0.1


Tree=29
num_leaves=31
num_cat=0
split_feature=9 16 9 9 18 9 9 16 9 3 9 18 18 8 21 9 2 18 3 9 0 18 18 9 18 16 18 8 9 8
split_gain=7.56097e+08 1.96932e+09 2.41136e+08 2.14686e+08 5.3918e+08 6.36388e+07 6.07725e+07 7.66449e+07 4.48507e+07 3.94184e+07 2.33882e+07 4.63477e+07 2.61106e+07 2.09888e+07 2.07838e+07 3.00482e+07 2.05213e+07 1.8903e+07 1.77399e+07 1.75732e+07 1.59471e+07 1.40674e+07 1.35994e+07 1.35339e+07 1.28746e+07 1.17026e+07 1.27033e+07 1.16186e+07 1.15089e+07 1.04033e+07
threshold=83.500000000000014 26202.650000000005 170.50000000000003 24.500000000000004 323.50000000000006 44.500000000000007 -22.499999999999996 26210.150000000005 122.50000000000001 162.50000000000003 -1.4999999999999998 24.500000000000004 339.50000000000006 73.250000000000014 95.454177165092318 197.50000000000003 1114.3000000000004 22.500000000000004 77.500000000000014 10.500000000000002 27.000000000000004 344.50000000000006 356.50000000000006 60.500000000000007 17.500000000000004 26197.250000000004 5.5000000000000009 55.750000000000007 164.50000000000003 73.250000000000014
decision_type=2 2 2 2 2 2 2 2 2 2 2 2 2 2 2 2 2 2 2 2 2 2 2 2 2 2 2 2 2 2
left_child=3 17 8 6 24 27 7 -1 18 14 11 -8 -12 23 15 -4 -17 25 -3 -14 -15 -10 -9 -7 -5 26 -2 -6 -28 -20
right_child=1 2 9 4 5 13 10 22 21 -11 12 -13 19 20 -16 16 -18 -19 29 -21 -22 -23 -24 -25 -26 -27 28 -29 -30 -31
leaf_value=-21.413203142881397 -21.134932457355035 92.8344369441905 254.4905463324653 -14.855613356004781 31.790514164392427 65.25185294881318 -12.868854954546869 -63.170570231796411 194.73981974768262 449.4379789806548 -13.07914424744574 -37.418630095289352 -5.6485415366068992 96.50889127630937 215.34925537109376 435.05009390024043 300.31542922973631 27.963668144177166 149.47247605927137 19.76557077886882 170.61221662480781 258.84534029047541 -105.08850605010987 97.177003374670306 -2.2219813500881584 -77.385548522255647 -5.1413969692720931 63.004160034793557 16.032570298612118 195.03490823412699
leaf_weight=815 342 47 36 2315 379 307 2767 218 126 21 4367 1065 735 76 23 26 20 195 245 432 47 47 120 234 1238 22 963 174 350 63
leaf_count=815 342 47 36 2315 379 307 2767 218 126 21 4367 1065 735 76 23 26 20 195 245 432 47 47 120 234 1238 22 963 174 350 63
internal_value=1.11034e-08 50.6837 200.068 -8.37381 9.22326 66.6693 -16.3535 -38.017 170.406 324.369 -13.6866 -19.6918 -9.52829 87.5379 299.355 322.918 376.47 -1.50506 150.06 3.75925 124.825 212.156 -78.0527 79.0605 -10.4536 -4.93166 -3.96853 41.6118 0.502844 158.792
internal_weight=17815 2526 654 15289 4770 1217 10519 1153 528 126 9366 3832 5534 664 105 82 46 1872 355 1167 123 173 338 541 3553 1677 1655 553 1313 308
internal_count=17815 2526 654 15289 4770 1217 10519 1153 528 126 9366 3832 5534 664 105 82 46 1872 355 1167 123 173 338 541 3553 1677 1655 553 1313 308
is_linear=0
shrinkage=0.1


Tree=30
num_leaves=31
num_cat=0
split_feature=9 16 9 9 18 9 9 18 9 3 0 9 18 8 8 18 8 18 9 18 8 9 18 8 9 18 8 18 9 9
split_gain=6.14133e+08 1.57032e+09 1.85297e+08 1.82134e+08 4.69762e+08 5.65118e+07 5.0874e+07 5.55658e+07 4.91557e+07 4.20092e+07 4.31245e+07 2.2377e+07 4.72367e+07 2.11098e+07 1.70375e+07 1.65748e+07 1.54281e+07 1.44402e+07 2.26969e+07 1.40913e+07 1.37411e+07 1.44103e+07 1.11209e+07 1.01289e+07 1.01092e+07 9.73925e+06 8.66038e+06 8.08638e+06 9.3513e+06 7.94093e+06
threshold=86.500000000000014 26202.650000000005 193.50000000000003 24.500000000000004 323.50000000000006 44.500000000000007 -25.499999999999996 23.500000000000004 130.50000000000003 75.500000000000014 51.000000000000007 -9.4999999999999982 21.500000000000004 41.750000000000007 39.250000000000007 18.500000000000004 34.250000000000007 328.50000000000006 2.5000000000000004 369.50000000000006 83.250000000000014 61.500000000000007 10.500000000000002 48.250000000000007 263.50000000000006 356.50000000000006 73.250000000000014 1.5000000000000002 210.50000000000003 -16.499999999999996
decision_type=2 2 2 2 2 2 2 2 2 2 2 2 2 2 2 2 2 2 2 2 2 2 2 2 2 2 2 2 2 2
left_child=3 15 8 6 22 23 7 -1 16 -4 -11 12 -8 -7 -10 27 -3 -13 -19 -14 21 -15 -5 -6 -17 -9 -18 -2 -29 -21
right_child=1 2 9 4 5 13 11 25 14 10 -12 17 19 20 -16 24 26 18 -20 29 -22 -23 -24 -25 -26 -27 -28 28 -30 -31
leaf_value=-20.975815146169815 -31.062454765073621 88.296000366210933 226.77589071865742 -16.581702481253298 16.60713243390002 45.116753357044168 -9.9946309234219033 -62.776759523036347 150.82416771336605 289.87794494628906 468.7298015887921 -11.88043394991287 -28.867079903433968 70.88854056776168 227.43174845377604 11.235733706847267 142.78246070078572 -16.988960252266832 8.3556213175887386 -79.358226030722449 166.2211691943082 103.63819027259701 -5.2134752489053291 46.238113837744706 74.115512311017071 -103.52639107007658 184.06145600818454 -8.2682305883629201 15.947946866850058 -42.909539834866351
leaf_weight=571 124 45 29 1384 164 138 2088 172 38 28 26 4784 1001 299 123 482 263 551 985 87 22 244 2275 389 27 89 63 941 192 191
leaf_count=571 124 45 29 1384 164 138 2088 172 38 28 26 4784 1001 299 123 482 263 551 985 87 22 244 2275 389 27 89 63 941 192 191
internal_value=3.14701e-08 47.2713 184.889 -7.29254 8.59956 61.3667 -14.7181 -38.4479 163.208 323.856 375.992 -12.68 -19.2648 80.1798 209.35 -0.653115 143.183 -9.17193 -0.736087 -34.3986 88.7438 85.6048 -9.51346 37.4506 14.5712 -76.6722 150.76 -6.81793 -4.16452 -54.3161
internal_weight=17815 2381 615 15434 4915 1256 10519 832 532 83 54 9687 3367 703 161 1766 371 6320 1536 1279 565 543 3659 553 509 261 326 1257 1133 278
internal_count=17815 2381 615 15434 4915 1256 10519 832 532 83 54 9687 3367 703 161 1766 371 6320 1536 1279 565 543 3659 553 509 261 326 1257 1133 278
is_linear=0
shrinkage=0.1


Tree=31
num_leaves=31
num_cat=0
split_feature=9 16 9 9 18 9 18 9 3 0 9 9 3 18 9 18 18 18 8 18 3 16 18 18 3 9 9 8 9 18
split_gain=4.97448e+08 1.27196e+09 1.50868e+08 1.48224e+08 3.87699e+08 4.54937e+07 7.96124e+07 3.43437e+07 3.42022e+07 4.17361e+07 3.12941e+07 2.00617e+07 1.76127e+07 1.59621e+07 2.78291e+07 1.45131e+07 1.44259e+07 1.41532e+07 1.3258e+07 1.22088e+07 1.05649e+07 9.90619e+06 1.00379e+07 9.82689e+06 9.74669e+06 9.24404e+06 7.21173e+06 7.00494e+06 6.35773e+06 6.21384e+06
threshold=86.500000000000014 26202.650000000005 187.50000000000003 29.500000000000004 324.50000000000006 -11.499999999999998 331.50000000000006 128.50000000000003 75.500000000000014 51.000000000000007 61.500000000000007 -27.499999999999996 196.50000000000003 340.50000000000006 5.5000000000000009 6.5000000000000009 334.50000000000006 23.500000000000004 36.750000000000007 324.50000000000006 151.50000000000003 26197.250000000004 5.5000000000000009 21.500000000000004 198.50000000000003 239.50000000000003 -48.499999999999993 73.250000000000014 -36.499999999999993 356.50000000000006
decision_type=2 2 2 2 2 2 2 2 2 2 2 2 2 2 2 2 2 2 2 2 2 2 2 2 2 2 2 2 2 2
left_child=3 17 7 5 23 6 15 19 -4 -10 12 26 16 -7 -15 -1 -6 21 -9 -3 -16 22 -2 -5 -13 -24 -8 -21 -17 -12
right_child=1 2 8 4 10 13 11 18 9 -11 29 24 -14 14 20 28 -18 -19 -20 27 -22 -23 25 -25 -26 -27 -28 -29 -30 -31
leaf_value=-3.7505269233825169 -17.501058890241566 79.956034353505018 199.09015217405377 -11.079963982509462 18.413363481751571 -10.385523955966228 -119.0820572391633 118.71201503460225 256.53178265545824 421.8568138709436 79.329221847209524 -36.40931586916485 138.06463265419006 -12.006638919869001 7.3420355571391882 -32.828440085258194 53.808614139192429 35.57050488509384 196.83763640432647 127.7252495324659 33.566089850222625 -69.462171407179412 -0.70174629244740172 3.2754872590507547 -88.311570458663141 27.991445807487736 -66.410465403373209 165.23129213394657 -16.014081215573018 112.388724609375
leaf_weight=1067 330 46 33 2599 141 5711 31 26 37 26 235 756 22 789 532 262 628 102 132 253 216 22 1188 584 38 124 161 62 1587 75
leaf_count=1067 330 46 33 2599 141 5711 31 26 37 26 235 756 22 789 532 262 628 102 132 253 216 22 1188 584 38 124 161 62 1587 75
internal_value=8.02003e-09 42.5442 166.4 -6.56329 9.24675 -12.6377 -21.3434 145.098 281.562 324.761 60.3969 -45.9076 49.8426 -7.95098 1.09499 -13.0375 47.3187 -0.587804 183.982 128.08 14.9148 -2.80424 -1.91114 -8.4461 -38.8933 2.01011 -74.9147 135.107 -18.3966 87.3275
internal_weight=17815 2381 615 15434 4284 11150 3902 519 96 63 1101 986 791 7248 1537 2916 769 1766 158 361 748 1664 1642 3183 794 1312 192 315 1849 310
internal_count=17815 2381 615 15434 4284 11150 3902 519 96 63 1101 986 791 7248 1537 2916 769 1766 158 361 748 1664 1642 3183 794 1312 192 315 1849 310
is_linear=0
shrinkage=0.1


Tree=32
num_leaves=31
num_cat=0
split_feature=9 16 9 9 18 9 18 9 3 9 2 9 18 18 18 3 9 18 18 16 18 18 0 18 0 18 18 16 16 9
split_gain=4.02933e+08 1.03029e+09 1.22659e+08 1.20444e+08 3.13457e+08 3.61181e+07 6.62035e+07 3.06902e+07 2.41393e+07 2.31819e+07 1.63627e+07 3.62517e+07 1.28336e+07 1.24915e+07 1.23183e+07 1.16866e+07 1.00896e+07 1.17853e+07 9.28359e+06 8.95804e+06 8.84716e+06 8.30909e+06 8.12719e+06 1.36319e+07 7.74562e+06 2.43995e+07 8.38272e+06 8.19499e+06 1.18545e+07 7.5748e+06
threshold=86.500000000000014 26202.650000000005 170.50000000000003 27.500000000000004 317.50000000000006 -16.499999999999996 339.50000000000006 49.500000000000007 162.50000000000003 114.50000000000001 1228.5500000000002 235.50000000000003 336.50000000000006 16.500000000000004 17.500000000000004 125.50000000000001 -47.499999999999993 372.50000000000006 2.5000000000000004 26195.050000000003 331.50000000000006 357.50000000000006 27.000000000000004 366.50000000000006 5.0000000000000009 358.50000000000006 18.500000000000004 26201.650000000005 26202.650000000005 116.50000000000001
decision_type=2 2 2 2 2 2 2 2 2 2 2 2 2 2 2 2 2 2 2 2 2 2 2 2 2 2 2 2 2 2
left_child=3 14 9 5 18 6 13 21 10 20 11 -4 -9 -1 -2 -11 -8 -18 -5 -20 -3 -6 -14 -24 27 26 -26 -7 -29 -16
right_child=1 2 8 4 7 24 16 12 -10 15 -12 -13 22 -15 29 -17 17 -19 19 -21 -22 -23 23 -25 25 -27 -28 28 -30 -31
leaf_value=-7.5294315354361245 -6.5276755451759563 66.335582071940109 199.90432654023172 -20.233247415161134 29.725893011569976 -9.2710293265347214 -97.312364162868931 39.033581279166818 335.61198381696431 130.92488302624588 136.78264739990234 351.32120012555805 64.546774089519801 -24.068509933428455 -0.92150446827922561 176.64314682164144 -40.336897362186797 -76.974859371700802 -5.0138310708685863 -72.171615259647368 115.09551317791608 57.54573211669922 82.67320161756578 169.65007446289064 -11.876781094835604 18.706750939590314 -2.7881885304269574 -82.192010142008471 -18.176009847266126 21.5841378626051
leaf_weight=1293 1165 45 64 500 450 2966 45 116 21 132 20 21 260 706 280 97 420 111 2876 20 215 141 182 20 2286 378 1825 30 809 321
leaf_count=1293 1165 45 64 500 450 2966 45 116 21 132 20 21 260 706 280 97 420 111 2876 20 215 141 182 20 2286 378 1825 30 809 321
internal_value=6.12771e-09 38.2898 149.76 -5.90696 7.72406 -11.632 -21.9777 52.3868 237.739 127.09 218.165 237.313 68.7709 -13.3706 -0.529023 150.29 -51.8485 -47.9957 -7.65013 -5.47763 106.656 36.3631 76.2374 91.2848 -8.42002 -5.60651 -7.84207 -11.7393 -20.465 11.099
internal_weight=17815 2381 615 15434 4565 10869 2575 1169 126 489 105 85 578 1999 1766 229 576 531 3396 2896 260 591 462 202 8294 4489 4111 3805 839 601
internal_count=17815 2381 615 15434 4565 10869 2575 1169 126 489 105 85 578 1999 1766 229 576 531 3396 2896 260 591 462 202 8294 4489 4111 3805 839 601
is_linear=0
shrinkage=0.1


Tree=33
num_leaves=31
num_cat=0
split_feature=9 16 9 18 9 9 9 18 8 0 18 9 18 9 18 3 3 3 0 21 18 16 18 9 9 18 9 18 18 18
split_gain=3.26523e+08 8.28549e+08 1.01542e+08 2.69422e+08 9.55294e+07 3.61715e+07 2.8166e+07 3.10508e+07 2.5238e+07 2.72278e+07 2.37266e+07 2.30432e+07 1.11581e+07 1.10434e+07 2.69922e+07 1.08322e+07 1.03686e+07 9.21944e+06 1.00786e+07 1.01504e+07 8.90633e+06 8.11354e+06 7.74117e+06 7.86026e+06 6.8557e+06 6.59776e+06 1.13729e+07 6.28892e+06 6.1648e+06 6.10611e+06
threshold=89.500000000000014 26202.650000000005 22.500000000000004 334.50000000000006 193.50000000000003 42.500000000000007 -25.499999999999996 23.500000000000004 32.750000000000007 57.000000000000007 23.500000000000004 140.50000000000003 23.500000000000004 -9.4999999999999982 21.500000000000004 163.50000000000003 111.50000000000001 169.50000000000003 27.000000000000004 53.474292684831589 360.50000000000006 26197.250000000004 2.5000000000000004 168.50000000000003 58.500000000000007 24.500000000000004 3.5000000000000004 356.50000000000006 15.500000000000002 2.5000000000000004
decision_type=2 2 2 2 2 2 2 2 2 2 2 2 2 2 2 2 2 2 2 2 2 2 2 2 2 2 2 2 2 2
left_child=2 12 6 10 11 -5 7 -1 -6 -10 29 15 21 14 -8 -3 -13 24 -19 -20 -16 22 -2 28 -7 -15 -27 -9 -24 -4
right_child=1 4 3 5 8 17 13 27 9 -11 -12 16 -14 25 20 -17 -18 18 19 -21 -22 -23 23 -25 -26 26 -28 -29 -30 -31
leaf_value=-15.548289170417602 -21.008662234806604 102.35961604795246 -18.067177644149119 29.175991505197011 153.76077124023439 48.02301800194688 -7.0024980926879072 -46.017383131870005 222.33680440541863 364.90074114118306 13.066272675879365 122.72009501139324 33.743970096752207 -8.7974978120197509 -20.08565112488046 147.75913008432539 183.74859660945526 65.665235947273871 86.535545730590826 174.77289941961115 -38.430939701916706 -62.194827027754357 -11.137145889697676 13.414962861476509 71.397130756993448 -10.742756912447192 6.4923151174529652 -78.762695072474116 4.4434442576274131 -6.8163575711478179
leaf_weight=571 173 317 575 477 25 254 2088 172 37 21 587 45 93 4526 905 63 73 74 32 22 374 22 501 393 248 694 854 89 515 2995
leaf_count=571 173 317 575 477 25 254 2088 172 37 21 587 45 93 4526 905 63 73 74 32 22 374 22 501 393 248 694 854 89 515 2995
internal_value=1.3292e-08 35.3566 -5.18391 6.1096 138.427 49.95 -10.9708 -28.6093 237.752 273.955 -5.565 121.873 0.0684435 -9.41642 -14.0101 109.886 160.475 65.6789 89.6357 122.484 -25.4501 -1.88407 -1.04536 1.40578 59.5704 -6.87002 -1.23452 -57.1834 -3.2395 -8.62846
internal_weight=17815 2278 15537 5264 581 1107 10273 832 83 58 4157 498 1697 9441 3367 380 118 630 128 54 1279 1604 1582 1409 502 6074 1548 261 1016 3570
internal_count=17815 2278 15537 5264 581 1107 10273 832 83 58 4157 498 1697 9441 3367 380 118 630 128 54 1279 1604 1582 1409 502 6074 1548 261 1016 3570
is_linear=0
shrinkage=0.1


Tree=34
num_leaves=31
num_cat=0
split_feature=9 18 9 9 18 9 9 18 16 9 9 9 18 18 8 18 9 18 15 18 18 18 18 0 18 9 18 16 16 9
split_gain=2.64484e+08 6.74291e+08 9.97068e+07 8.26206e+07 2.22666e+08 2.97048e+07 2.54495e+07 4.54152e+07 2.53168e+07 1.9805e+07 1.93204e+07 1.52709e+07 1.23855e+07 1.14394e+07 1.03328e+07 9.21582e+06 7.69165e+06 8.34131e+06 7.13817e+06 7.04296e+06 6.83509e+06 6.69391e+06 6.47683e+06 5.34995e+06 1.89737e+07 7.48763e+06 6.65002e+06 5.38293e+06 9.70216e+06 4.85319e+06
